<?xml version="1.0"?>
<opencv_storage>
<cascade>
  <stageType>BOOST</stageType>
  <featureType>HAAR</featureType>
  <height>30</height>
  <width>24</width>
  <stageParams>
    <boostType>GAB</boostType>
    <minHitRate>9.9900001287460327e-01</minHitRate>
    <maxFalseAlarm>2.5000000000000000e-01</maxFalseAlarm>
    <weightTrimRate>9.4999999999999996e-01</weightTrimRate>
    <maxDepth>1</maxDepth>
    <maxWeakCount>100</maxWeakCount></stageParams>
  <featureParams>
    <maxCatCount>0</maxCatCount>
    <featSize>1</featSize>
    <mode>ALL</mode></featureParams>
  <stageNum>12</stageNum>
  <stages>
    <!-- stage 0 -->
    <_>
      <maxWeakCount>8</maxWeakCount>
      <stageThreshold>-1.7142703533172607e+00</stageThreshold>
      <weakClassifiers>
        <_>
          <internalNodes>
            0 -1 68 7.3776721954345703e-02</internalNodes>
          <leafValues>
            -8.1589961051940918e-01 6.9770991802215576e-01</leafValues></_>
        <_>
          <internalNodes>
            0 -1 90 -5.2470423281192780e-02</internalNodes>
          <leafValues>
            6.7741107940673828e-01 -7.1217834949493408e-01</leafValues></_>
        <_>
          <internalNodes>
            0 -1 164 7.4703432619571686e-03</internalNodes>
          <leafValues>
            -3.5441696643829346e-01 7.4711740016937256e-01</leafValues></_>
        <_>
          <internalNodes>
            0 -1 197 1.8280938267707825e-02</internalNodes>
          <leafValues>
            -5.0349920988082886e-01 5.5444842576980591e-01</leafValues></_>
        <_>
          <internalNodes>
            0 -1 79 -7.2220158763229847e-03</internalNodes>
          <leafValues>
            3.2069426774978638e-01 -7.6308512687683105e-01</leafValues></_>
        <_>
          <internalNodes>
            0 -1 168 -9.7315688617527485e-04</internalNodes>
          <leafValues>
            6.9338023662567139e-01 -3.2860705256462097e-01</leafValues></_>
        <_>
          <internalNodes>
            0 -1 182 1.4115852303802967e-02</internalNodes>
          <leafValues>
            -6.6739839315414429e-01 3.4735524654388428e-01</leafValues></_>
        <_>
          <internalNodes>
            0 -1 53 4.5030154287815094e-03</internalNodes>
          <leafValues>
            -7.3561829328536987e-01 3.2504758238792419e-01</leafValues></_></weakClassifiers></_>
    <!-- stage 1 -->
    <_>
      <maxWeakCount>15</maxWeakCount>
      <stageThreshold>-1.0054526329040527e+00</stageThreshold>
      <weakClassifiers>
        <_>
          <internalNodes>
            0 -1 226 1.3603039085865021e-02</internalNodes>
          <leafValues>
            -8.5831958055496216e-01 3.9481616020202637e-01</leafValues></_>
        <_>
          <internalNodes>
            0 -1 128 1.4813997782766819e-02</internalNodes>
          <leafValues>
            -6.7985707521438599e-01 4.2025253176689148e-01</leafValues></_>
        <_>
          <internalNodes>
            0 -1 145 9.3287909403443336e-03</internalNodes>
          <leafValues>
            2.2501417994499207e-01 -9.6740990877151489e-01</leafValues></_>
        <_>
          <internalNodes>
            0 -1 11 9.8544824868440628e-03</internalNodes>
          <leafValues>
            -4.3196156620979309e-01 4.9277189373970032e-01</leafValues></_>
        <_>
          <internalNodes>
            0 -1 20 -9.5270007848739624e-02</internalNodes>
          <leafValues>
            4.6215912699699402e-01 -3.9433640241622925e-01</leafValues></_>
        <_>
          <internalNodes>
            0 -1 191 -7.7474967110902071e-04</internalNodes>
          <leafValues>
            5.7305830717086792e-01 -3.4008321166038513e-01</leafValues></_>
        <_>
          <internalNodes>
            0 -1 202 5.2233333699405193e-03</internalNodes>
          <leafValues>
            -6.6050297021865845e-01 2.8898140788078308e-01</leafValues></_>
        <_>
          <internalNodes>
            0 -1 220 1.1711455881595612e-03</internalNodes>
          <leafValues>
            -4.0348759293556213e-01 4.7563445568084717e-01</leafValues></_>
        <_>
          <internalNodes>
            0 -1 91 -3.1883323099464178e-03</internalNodes>
          <leafValues>
            6.8897557258605957e-01 -2.8104537725448608e-01</leafValues></_>
        <_>
          <internalNodes>
            0 -1 92 -2.2424817085266113e-02</internalNodes>
          <leafValues>
            6.7061400413513184e-01 -2.7453687787055969e-01</leafValues></_>
        <_>
          <internalNodes>
            0 -1 133 -2.3561071604490280e-02</internalNodes>
          <leafValues>
            6.1267453432083130e-01 -2.7225142717361450e-01</leafValues></_>
        <_>
          <internalNodes>
            0 -1 164 1.0826264508068562e-02</internalNodes>
          <leafValues>
            -2.2128050029277802e-01 7.4325710535049438e-01</leafValues></_>
        <_>
          <internalNodes>
            0 -1 251 1.0395405814051628e-02</internalNodes>
          <leafValues>
            2.5750830769538879e-01 -8.3982294797897339e-01</leafValues></_>
        <_>
          <internalNodes>
            0 -1 161 4.2928656330332160e-04</internalNodes>
          <leafValues>
            -7.9231846332550049e-01 1.6855517029762268e-01</leafValues></_>
        <_>
          <internalNodes>
            0 -1 221 1.4579050475731492e-03</internalNodes>
          <leafValues>
            -3.5300880670547485e-01 4.3845254182815552e-01</leafValues></_></weakClassifiers></_>
    <!-- stage 2 -->
    <_>
      <maxWeakCount>17</maxWeakCount>
      <stageThreshold>-1.2465164661407471e+00</stageThreshold>
      <weakClassifiers>
        <_>
          <internalNodes>
            0 -1 58 -1.9381740689277649e-01</internalNodes>
          <leafValues>
            5.4124748706817627e-01 -3.1761005520820618e-01</leafValues></_>
        <_>
          <internalNodes>
            0 -1 121 -2.0373496226966381e-03</internalNodes>
          <leafValues>
            5.3007209300994873e-01 -3.0361217260360718e-01</leafValues></_>
        <_>
          <internalNodes>
            0 -1 199 2.4963296949863434e-02</internalNodes>
          <leafValues>
            -6.1962264776229858e-01 2.7171602845191956e-01</leafValues></_>
        <_>
          <internalNodes>
            0 -1 76 -5.5179079063236713e-03</internalNodes>
          <leafValues>
            1.9304886460304260e-01 -7.0015650987625122e-01</leafValues></_>
        <_>
          <internalNodes>
            0 -1 113 -1.1152245569974184e-03</internalNodes>
          <leafValues>
            5.3484457731246948e-01 -2.7923637628555298e-01</leafValues></_>
        <_>
          <internalNodes>
            0 -1 141 3.8943059742450714e-02</internalNodes>
          <leafValues>
            1.9853544235229492e-01 -8.0527669191360474e-01</leafValues></_>
        <_>
          <internalNodes>
            0 -1 61 6.5509119303897023e-04</internalNodes>
          <leafValues>
            -3.4000739455223083e-01 4.5651727914810181e-01</leafValues></_>
        <_>
          <internalNodes>
            0 -1 80 -1.5272404998540878e-02</internalNodes>
          <leafValues>
            5.7992720603942871e-01 -2.5943157076835632e-01</leafValues></_>
        <_>
          <internalNodes>
            0 -1 51 -2.4388356134295464e-02</internalNodes>
          <leafValues>
            -9.8461043834686279e-01 2.0054847002029419e-01</leafValues></_>
        <_>
          <internalNodes>
            0 -1 190 -1.0841696057468653e-03</internalNodes>
          <leafValues>
            3.9445373415946960e-01 -4.2386162281036377e-01</leafValues></_>
        <_>
          <internalNodes>
            0 -1 167 2.3005206603556871e-03</internalNodes>
          <leafValues>
            -3.2077610492706299e-01 4.6654480695724487e-01</leafValues></_>
        <_>
          <internalNodes>
            0 -1 172 -1.7185283824801445e-02</internalNodes>
          <leafValues>
            4.8781421780586243e-01 -2.9461166262626648e-01</leafValues></_>
        <_>
          <internalNodes>
            0 -1 239 -3.6099110729992390e-04</internalNodes>
          <leafValues>
            2.7365416288375854e-01 -4.9414995312690735e-01</leafValues></_>
        <_>
          <internalNodes>
            0 -1 222 2.2467754781246185e-02</internalNodes>
          <leafValues>
            -4.5629069209098816e-01 3.2341668009757996e-01</leafValues></_>
        <_>
          <internalNodes>
            0 -1 64 1.9206313416361809e-02</internalNodes>
          <leafValues>
            -7.3596429824829102e-01 2.0997834205627441e-01</leafValues></_>
        <_>
          <internalNodes>
            0 -1 87 1.3571629300713539e-02</internalNodes>
          <leafValues>
            -2.5795620679855347e-01 6.1714601516723633e-01</leafValues></_>
        <_>
          <internalNodes>
            0 -1 177 2.3375784978270531e-02</internalNodes>
          <leafValues>
            -2.0519623160362244e-01 7.5490796566009521e-01</leafValues></_></weakClassifiers></_>
    <!-- stage 3 -->
    <_>
      <maxWeakCount>21</maxWeakCount>
      <stageThreshold>-1.0882779359817505e+00</stageThreshold>
      <weakClassifiers>
        <_>
          <internalNodes>
            0 -1 4 -3.0129954218864441e-02</internalNodes>
          <leafValues>
            4.3161344528198242e-01 -3.7607654929161072e-01</leafValues></_>
        <_>
          <internalNodes>
            0 -1 149 5.0662662833929062e-03</internalNodes>
          <leafValues>
            -5.1688241958618164e-01 2.8165870904922485e-01</leafValues></_>
        <_>
          <internalNodes>
            0 -1 166 1.9081418868154287e-03</internalNodes>
          <leafValues>
            -3.3937659859657288e-01 4.4859594106674194e-01</leafValues></_>
        <_>
          <internalNodes>
            0 -1 29 5.0060875713825226e-02</internalNodes>
          <leafValues>
            -6.5812796354293823e-01 2.2162230312824249e-01</leafValues></_>
        <_>
          <internalNodes>
            0 -1 75 7.2406185790896416e-04</internalNodes>
          <leafValues>
            -4.5282787084579468e-01 2.1721719205379486e-01</leafValues></_>
        <_>
          <internalNodes>
            0 -1 115 1.5412978827953339e-02</internalNodes>
          <leafValues>
            9.8252184689044952e-02 -8.0595332384109497e-01</leafValues></_>
        <_>
          <internalNodes>
            0 -1 190 -7.6909828931093216e-04</internalNodes>
          <leafValues>
            3.2574108242988586e-01 -3.3917877078056335e-01</leafValues></_>
        <_>
          <internalNodes>
            0 -1 31 8.6769391782581806e-04</internalNodes>
          <leafValues>
            -2.4853734672069550e-01 4.3732017278671265e-01</leafValues></_>
        <_>
          <internalNodes>
            0 -1 210 7.4943969957530499e-04</internalNodes>
          <leafValues>
            -2.5519520044326782e-01 4.3578088283538818e-01</leafValues></_>
        <_>
          <internalNodes>
            0 -1 117 -7.9350769519805908e-03</internalNodes>
          <leafValues>
            -8.6322510242462158e-01 1.5928687155246735e-01</leafValues></_>
        <_>
          <internalNodes>
            0 -1 261 -1.7790298908948898e-02</internalNodes>
          <leafValues>
            -7.4739027023315430e-01 1.2783144414424896e-01</leafValues></_>
        <_>
          <internalNodes>
            0 -1 204 -4.6766747254878283e-04</internalNodes>
          <leafValues>
            2.9265958070755005e-01 -3.4656268358230591e-01</leafValues></_>
        <_>
          <internalNodes>
            0 -1 81 -9.7968720365315676e-04</internalNodes>
          <leafValues>
            3.5155072808265686e-01 -3.0586087703704834e-01</leafValues></_>
        <_>
          <internalNodes>
            0 -1 99 -1.1194452643394470e-02</internalNodes>
          <leafValues>
            -9.2380517721176147e-01 1.4628008008003235e-01</leafValues></_>
        <_>
          <internalNodes>
            0 -1 63 -3.9510376751422882e-02</internalNodes>
          <leafValues>
            1.4803420007228851e-01 -5.6275600194931030e-01</leafValues></_>
        <_>
          <internalNodes>
            0 -1 252 1.0732093825936317e-02</internalNodes>
          <leafValues>
            1.3169479370117188e-01 -6.9251328706741333e-01</leafValues></_>
        <_>
          <internalNodes>
            0 -1 237 -1.2880222871899605e-02</internalNodes>
          <leafValues>
            -8.0596709251403809e-01 1.0919053107500076e-01</leafValues></_>
        <_>
          <internalNodes>
            0 -1 219 1.9443307537585497e-03</internalNodes>
          <leafValues>
            -2.5609487295150757e-01 4.6676555275917053e-01</leafValues></_>
        <_>
          <internalNodes>
            0 -1 257 -2.4185990332625806e-04</internalNodes>
          <leafValues>
            3.6358186602592468e-01 -3.2446634769439697e-01</leafValues></_>
        <_>
          <internalNodes>
            0 -1 49 -5.9261481510475278e-05</internalNodes>
          <leafValues>
            -2.8678241372108459e-01 4.2200806736946106e-01</leafValues></_>
        <_>
          <internalNodes>
            0 -1 150 -6.4733996987342834e-02</internalNodes>
          <leafValues>
            6.0257971286773682e-01 -2.7919921278953552e-01</leafValues></_></weakClassifiers></_>
    <!-- stage 4 -->
    <_>
      <maxWeakCount>21</maxWeakCount>
      <stageThreshold>-9.3332737684249878e-01</stageThreshold>
      <weakClassifiers>
        <_>
          <internalNodes>
            0 -1 264 -3.2455682754516602e-02</internalNodes>
          <leafValues>
            3.7592136859893799e-01 -3.1100478768348694e-01</leafValues></_>
        <_>
          <internalNodes>
            0 -1 57 6.2522413209080696e-03</internalNodes>
          <leafValues>
            -3.3652269840240479e-01 3.5998713970184326e-01</leafValues></_>
        <_>
          <internalNodes>
            0 -1 17 -2.2293038200587034e-03</internalNodes>
          <leafValues>
            2.7721375226974487e-01 -4.1404196619987488e-01</leafValues></_>
        <_>
          <internalNodes>
            0 -1 142 -2.7225105091929436e-02</internalNodes>
          <leafValues>
            -7.3642838001251221e-01 1.8824751675128937e-01</leafValues></_>
        <_>
          <internalNodes>
            0 -1 170 -6.0904800193384290e-04</internalNodes>
          <leafValues>
            2.8327009081840515e-01 -3.6888983845710754e-01</leafValues></_>
        <_>
          <internalNodes>
            0 -1 212 -8.1953103654086590e-04</internalNodes>
          <leafValues>
            4.5738920569419861e-01 -2.4503958225250244e-01</leafValues></_>
        <_>
          <internalNodes>
            0 -1 83 -8.6644506081938744e-03</internalNodes>
          <leafValues>
            -9.5678967237472534e-01 1.4629177749156952e-01</leafValues></_>
        <_>
          <internalNodes>
            0 -1 266 -1.5849851770326495e-03</internalNodes>
          <leafValues>
            2.3488260805606842e-01 -4.1978883743286133e-01</leafValues></_>
        <_>
          <internalNodes>
            0 -1 215 -6.8996014306321740e-04</internalNodes>
          <leafValues>
            4.9859783053398132e-01 -2.0536053180694580e-01</leafValues></_>
        <_>
          <internalNodes>
            0 -1 86 -8.6401209235191345e-02</internalNodes>
          <leafValues>
            6.6811150312423706e-01 -1.3915106654167175e-01</leafValues></_>
        <_>
          <internalNodes>
            0 -1 225 2.0068101584911346e-03</internalNodes>
          <leafValues>
            -3.1484022736549377e-01 4.2599967122077942e-01</leafValues></_>
        <_>
          <internalNodes>
            0 -1 249 -1.9486467353999615e-03</internalNodes>
          <leafValues>
            3.7634286284446716e-01 -2.8317022323608398e-01</leafValues></_>
        <_>
          <internalNodes>
            0 -1 130 2.3989900946617126e-03</internalNodes>
          <leafValues>
            -5.6542056798934937e-01 2.3666210472583771e-01</leafValues></_>
        <_>
          <internalNodes>
            0 -1 93 -6.2342276796698570e-03</internalNodes>
          <leafValues>
            5.7150167226791382e-01 -2.0234376192092896e-01</leafValues></_>
        <_>
          <internalNodes>
            0 -1 159 -6.5614413470029831e-03</internalNodes>
          <leafValues>
            -8.7648272514343262e-01 1.0693901032209396e-01</leafValues></_>
        <_>
          <internalNodes>
            0 -1 85 9.8222289234399796e-03</internalNodes>
          <leafValues>
            -8.7400645017623901e-01 7.8097127377986908e-02</leafValues></_>
        <_>
          <internalNodes>
            0 -1 100 -8.5996210575103760e-02</internalNodes>
          <leafValues>
            -9.3412119150161743e-01 8.4934562444686890e-02</leafValues></_>
        <_>
          <internalNodes>
            0 -1 267 -5.7103158906102180e-03</internalNodes>
          <leafValues>
            -8.8165056705474854e-01 7.6554641127586365e-02</leafValues></_>
        <_>
          <internalNodes>
            0 -1 6 1.6390194650739431e-03</internalNodes>
          <leafValues>
            -2.0269645750522614e-01 4.8585823178291321e-01</leafValues></_>
        <_>
          <internalNodes>
            0 -1 223 9.4027910381555557e-03</internalNodes>
          <leafValues>
            -2.9037985205650330e-01 3.2519063353538513e-01</leafValues></_>
        <_>
          <internalNodes>
            0 -1 132 3.4133695065975189e-02</internalNodes>
          <leafValues>
            -1.2890614569187164e-01 7.8633093833923340e-01</leafValues></_></weakClassifiers></_>
    <!-- stage 5 -->
    <_>
      <maxWeakCount>24</maxWeakCount>
      <stageThreshold>-7.8685390949249268e-01</stageThreshold>
      <weakClassifiers>
        <_>
          <internalNodes>
            0 -1 213 -9.4851362518966198e-04</internalNodes>
          <leafValues>
            4.6153846383094788e-01 -1.8607954680919647e-01</leafValues></_>
        <_>
          <internalNodes>
            0 -1 200 8.5571026429533958e-03</internalNodes>
          <leafValues>
            -7.1645855903625488e-01 1.5153612196445465e-01</leafValues></_>
        <_>
          <internalNodes>
            0 -1 33 4.1328283259645104e-04</internalNodes>
          <leafValues>
            1.5795522928237915e-01 -6.4945632219314575e-01</leafValues></_>
        <_>
          <internalNodes>
            0 -1 173 -4.9821068532764912e-03</internalNodes>
          <leafValues>
            2.0865707099437714e-01 -4.0567061305046082e-01</leafValues></_>
        <_>
          <internalNodes>
            0 -1 162 3.8762748241424561e-02</internalNodes>
          <leafValues>
            1.1540705710649490e-01 -8.8361692428588867e-01</leafValues></_>
        <_>
          <internalNodes>
            0 -1 54 1.5846274327486753e-03</internalNodes>
          <leafValues>
            -7.5312447547912598e-01 6.6293276846408844e-02</leafValues></_>
        <_>
          <internalNodes>
            0 -1 268 -1.4161069411784410e-03</internalNodes>
          <leafValues>
            2.6091319322586060e-01 -2.9742991924285889e-01</leafValues></_>
        <_>
          <internalNodes>
            0 -1 196 -2.3040182422846556e-03</internalNodes>
          <leafValues>
            4.9616271257400513e-01 -2.3233942687511444e-01</leafValues></_>
        <_>
          <internalNodes>
            0 -1 112 -2.4726472795009613e-02</internalNodes>
          <leafValues>
            -7.5140708684921265e-01 1.6081967949867249e-01</leafValues></_>
        <_>
          <internalNodes>
            0 -1 147 -3.8349328679032624e-04</internalNodes>
          <leafValues>
            2.9854160547256470e-01 -2.9985186457633972e-01</leafValues></_>
        <_>
          <internalNodes>
            0 -1 119 -1.8449318595230579e-03</internalNodes>
          <leafValues>
            5.9766989946365356e-01 -1.6798551380634308e-01</leafValues></_>
        <_>
          <internalNodes>
            0 -1 0 -1.6801032423973083e-01</internalNodes>
          <leafValues>
            4.9640178680419922e-01 -1.6595551371574402e-01</leafValues></_>
        <_>
          <internalNodes>
            0 -1 259 1.1191318742930889e-02</internalNodes>
          <leafValues>
            -1.3064488768577576e-01 6.7103558778762817e-01</leafValues></_>
        <_>
          <internalNodes>
            0 -1 104 -4.1692232480272651e-04</internalNodes>
          <leafValues>
            2.8374987840652466e-01 -3.2333412766456604e-01</leafValues></_>
        <_>
          <internalNodes>
            0 -1 193 -5.9897440951317549e-04</internalNodes>
          <leafValues>
            4.6591296792030334e-01 -2.0827862620353699e-01</leafValues></_>
        <_>
          <internalNodes>
            0 -1 98 4.9778103828430176e-02</internalNodes>
          <leafValues>
            -2.2574602067470551e-01 5.0237888097763062e-01</leafValues></_>
        <_>
          <internalNodes>
            0 -1 184 -1.9449755549430847e-02</internalNodes>
          <leafValues>
            7.8990471363067627e-01 -1.5346124768257141e-01</leafValues></_>
        <_>
          <internalNodes>
            0 -1 46 7.0973619818687439e-02</internalNodes>
          <leafValues>
            -4.4955417513847351e-01 2.3786231875419617e-01</leafValues></_>
        <_>
          <internalNodes>
            0 -1 73 -1.8650528043508530e-02</internalNodes>
          <leafValues>
            -4.8190471529960632e-01 1.7538860440254211e-01</leafValues></_>
        <_>
          <internalNodes>
            0 -1 165 -4.7630292829126120e-04</internalNodes>
          <leafValues>
            3.1537130475044250e-01 -3.1067264080047607e-01</leafValues></_>
        <_>
          <internalNodes>
            0 -1 234 9.5825390890240669e-03</internalNodes>
          <leafValues>
            1.3379587233066559e-01 -7.1858119964599609e-01</leafValues></_>
        <_>
          <internalNodes>
            0 -1 101 -3.8455044850707054e-03</internalNodes>
          <leafValues>
            -8.9461845159530640e-01 8.1309914588928223e-02</leafValues></_>
        <_>
          <internalNodes>
            0 -1 238 1.2752759270370007e-02</internalNodes>
          <leafValues>
            7.1462467312812805e-02 -8.8102686405181885e-01</leafValues></_>
        <_>
          <internalNodes>
            0 -1 146 1.6475368291139603e-02</internalNodes>
          <leafValues>
            8.8244810700416565e-02 -8.3734017610549927e-01</leafValues></_></weakClassifiers></_>
    <!-- stage 6 -->
    <_>
      <maxWeakCount>29</maxWeakCount>
      <stageThreshold>-1.0070569515228271e+00</stageThreshold>
      <weakClassifiers>
        <_>
          <internalNodes>
            0 -1 256 8.9866336202248931e-04</internalNodes>
          <leafValues>
            -2.5194805860519409e-01 3.8253825902938843e-01</leafValues></_>
        <_>
          <internalNodes>
            0 -1 123 1.3816097052767873e-03</internalNodes>
          <leafValues>
            -2.3988914489746094e-01 3.6156004667282104e-01</leafValues></_>
        <_>
          <internalNodes>
            0 -1 26 -1.3951346278190613e-02</internalNodes>
          <leafValues>
            2.8024968504905701e-01 -3.3244788646697998e-01</leafValues></_>
        <_>
          <internalNodes>
            0 -1 205 1.3073391746729612e-03</internalNodes>
          <leafValues>
            -4.5810735225677490e-01 2.3980458080768585e-01</leafValues></_>
        <_>
          <internalNodes>
            0 -1 230 1.0283049196004868e-03</internalNodes>
          <leafValues>
            -6.1972600221633911e-01 1.9439637660980225e-01</leafValues></_>
        <_>
          <internalNodes>
            0 -1 41 -2.1814480423927307e-03</internalNodes>
          <leafValues>
            3.7741687893867493e-01 -2.3330605030059814e-01</leafValues></_>
        <_>
          <internalNodes>
            0 -1 105 2.4911351501941681e-03</internalNodes>
          <leafValues>
            1.1022839695215225e-01 -7.7981966733932495e-01</leafValues></_>
        <_>
          <internalNodes>
            0 -1 125 -2.1364790201187134e-01</internalNodes>
          <leafValues>
            5.9201657772064209e-01 -1.7253826558589935e-01</leafValues></_>
        <_>
          <internalNodes>
            0 -1 82 -1.2007713085040450e-03</internalNodes>
          <leafValues>
            4.3664142489433289e-01 -1.6593304276466370e-01</leafValues></_>
        <_>
          <internalNodes>
            0 -1 8 -7.0366576313972473e-02</internalNodes>
          <leafValues>
            6.2903714179992676e-01 -1.6546703875064850e-01</leafValues></_>
        <_>
          <internalNodes>
            0 -1 37 -1.5903275460004807e-02</internalNodes>
          <leafValues>
            2.2466653585433960e-01 -4.4900181889533997e-01</leafValues></_>
        <_>
          <internalNodes>
            0 -1 169 1.0574963875114918e-02</internalNodes>
          <leafValues>
            9.0598247945308685e-02 -8.2734268903732300e-01</leafValues></_>
        <_>
          <internalNodes>
            0 -1 72 -2.9865447431802750e-02</internalNodes>
          <leafValues>
            -6.7050933837890625e-01 9.9730536341667175e-02</leafValues></_>
        <_>
          <internalNodes>
            0 -1 138 -1.6045164316892624e-02</internalNodes>
          <leafValues>
            7.5144290924072266e-01 -1.1665014922618866e-01</leafValues></_>
        <_>
          <internalNodes>
            0 -1 66 -7.5043760240077972e-02</internalNodes>
          <leafValues>
            3.8360801339149475e-01 -2.0901918411254883e-01</leafValues></_>
        <_>
          <internalNodes>
            0 -1 227 3.7619315087795258e-02</internalNodes>
          <leafValues>
            -1.9205798208713531e-01 5.0421410799026489e-01</leafValues></_>
        <_>
          <internalNodes>
            0 -1 30 -6.6469600424170494e-03</internalNodes>
          <leafValues>
            4.9141323566436768e-01 -1.5144731104373932e-01</leafValues></_>
        <_>
          <internalNodes>
            0 -1 155 -2.3945797234773636e-02</internalNodes>
          <leafValues>
            -9.2913305759429932e-01 7.9539149999618530e-02</leafValues></_>
        <_>
          <internalNodes>
            0 -1 144 -8.1321131438016891e-03</internalNodes>
          <leafValues>
            2.9444724321365356e-01 -2.4356068670749664e-01</leafValues></_>
        <_>
          <internalNodes>
            0 -1 94 1.9416723400354385e-02</internalNodes>
          <leafValues>
            1.4500537514686584e-01 -5.5329751968383789e-01</leafValues></_>
        <_>
          <internalNodes>
            0 -1 108 -4.6347337774932384e-04</internalNodes>
          <leafValues>
            2.3489104211330414e-01 -3.3407592773437500e-01</leafValues></_>
        <_>
          <internalNodes>
            0 -1 175 -7.4092426802963018e-04</internalNodes>
          <leafValues>
            3.1633147597312927e-01 -2.3563618957996368e-01</leafValues></_>
        <_>
          <internalNodes>
            0 -1 258 -6.0483260313048959e-04</internalNodes>
          <leafValues>
            4.0383931994438171e-01 -1.9847013056278229e-01</leafValues></_>
        <_>
          <internalNodes>
            0 -1 131 -2.2387290373444557e-03</internalNodes>
          <leafValues>
            2.7058917284011841e-01 -2.7270841598510742e-01</leafValues></_>
        <_>
          <internalNodes>
            0 -1 134 -4.2915362864732742e-03</internalNodes>
          <leafValues>
            -9.3634480237960815e-01 7.7501676976680756e-02</leafValues></_>
        <_>
          <internalNodes>
            0 -1 52 8.3868261426687241e-03</internalNodes>
          <leafValues>
            -1.0846946388483047e-01 8.0279928445816040e-01</leafValues></_>
        <_>
          <internalNodes>
            0 -1 59 -4.4264912605285645e-01</internalNodes>
          <leafValues>
            7.8323167562484741e-01 -8.2131184637546539e-02</leafValues></_>
        <_>
          <internalNodes>
            0 -1 45 3.7374343723058701e-02</internalNodes>
          <leafValues>
            -1.4832153916358948e-01 4.7220021486282349e-01</leafValues></_>
        <_>
          <internalNodes>
            0 -1 103 -2.8520731721073389e-03</internalNodes>
          <leafValues>
            3.6328810453414917e-01 -3.0421024560928345e-01</leafValues></_></weakClassifiers></_>
    <!-- stage 7 -->
    <_>
      <maxWeakCount>31</maxWeakCount>
      <stageThreshold>-8.7162083387374878e-01</stageThreshold>
      <weakClassifiers>
        <_>
          <internalNodes>
            0 -1 50 -6.9406128022819757e-04</internalNodes>
          <leafValues>
            3.0136987566947937e-01 -2.7521008253097534e-01</leafValues></_>
        <_>
          <internalNodes>
            0 -1 28 1.6739256680011749e-02</internalNodes>
          <leafValues>
            -2.5360053777694702e-01 3.4517562389373779e-01</leafValues></_>
        <_>
          <internalNodes>
            0 -1 106 -4.1923001408576965e-02</internalNodes>
          <leafValues>
            6.6048192977905273e-01 -1.3338364660739899e-01</leafValues></_>
        <_>
          <internalNodes>
            0 -1 149 4.8017101362347603e-03</internalNodes>
          <leafValues>
            -4.8742422461509705e-01 1.7345122992992401e-01</leafValues></_>
        <_>
          <internalNodes>
            0 -1 261 4.3321191333234310e-03</internalNodes>
          <leafValues>
            1.2608611583709717e-01 -7.7156090736389160e-01</leafValues></_>
        <_>
          <internalNodes>
            0 -1 24 -1.1395527981221676e-03</internalNodes>
          <leafValues>
            2.6470100879669189e-01 -2.8142544627189636e-01</leafValues></_>
        <_>
          <internalNodes>
            0 -1 245 6.6492925398051739e-03</internalNodes>
          <leafValues>
            -2.0911741256713867e-01 3.5228860378265381e-01</leafValues></_>
        <_>
          <internalNodes>
            0 -1 96 -6.6261151805520058e-03</internalNodes>
          <leafValues>
            4.7126361727714539e-01 -2.1616281569004059e-01</leafValues></_>
        <_>
          <internalNodes>
            0 -1 43 2.5219703093171120e-03</internalNodes>
          <leafValues>
            7.6595015823841095e-02 -8.8706874847412109e-01</leafValues></_>
        <_>
          <internalNodes>
            0 -1 71 -1.4587780460715294e-03</internalNodes>
          <leafValues>
            2.3053340613842010e-01 -3.1774830818176270e-01</leafValues></_>
        <_>
          <internalNodes>
            0 -1 5 -6.7510977387428284e-02</internalNodes>
          <leafValues>
            -8.7431681156158447e-01 8.3110406994819641e-02</leafValues></_>
        <_>
          <internalNodes>
            0 -1 12 -8.4714172407984734e-04</internalNodes>
          <leafValues>
            3.1058949232101440e-01 -2.5521913170814514e-01</leafValues></_>
        <_>
          <internalNodes>
            0 -1 187 -8.5749141871929169e-03</internalNodes>
          <leafValues>
            -9.0048623085021973e-01 7.7156163752079010e-02</leafValues></_>
        <_>
          <internalNodes>
            0 -1 22 1.8439553678035736e-02</internalNodes>
          <leafValues>
            1.2531338632106781e-01 -4.8670679330825806e-01</leafValues></_>
        <_>
          <internalNodes>
            0 -1 109 -3.3458613324910402e-04</internalNodes>
          <leafValues>
            2.7132192254066467e-01 -2.7226680517196655e-01</leafValues></_>
        <_>
          <internalNodes>
            0 -1 139 3.4681774675846100e-02</internalNodes>
          <leafValues>
            9.1635577380657196e-02 -7.8099203109741211e-01</leafValues></_>
        <_>
          <internalNodes>
            0 -1 181 1.6236453084275126e-03</internalNodes>
          <leafValues>
            1.2070067226886749e-01 -4.9193468689918518e-01</leafValues></_>
        <_>
          <internalNodes>
            0 -1 223 5.7309046387672424e-03</internalNodes>
          <leafValues>
            -3.5976698994636536e-01 2.3694720864295959e-01</leafValues></_>
        <_>
          <internalNodes>
            0 -1 148 -8.3769202232360840e-02</internalNodes>
          <leafValues>
            7.6165562868118286e-01 -9.2794924974441528e-02</leafValues></_>
        <_>
          <internalNodes>
            0 -1 241 -7.2024334222078323e-03</internalNodes>
          <leafValues>
            -8.5173910856246948e-01 9.5754504203796387e-02</leafValues></_>
        <_>
          <internalNodes>
            0 -1 19 1.0550510883331299e-01</internalNodes>
          <leafValues>
            -4.2169451713562012e-01 1.4251421391963959e-01</leafValues></_>
        <_>
          <internalNodes>
            0 -1 84 -5.0950972363352776e-03</internalNodes>
          <leafValues>
            2.2979530692100525e-01 -2.9493981599807739e-01</leafValues></_>
        <_>
          <internalNodes>
            0 -1 13 2.1855365484952927e-03</internalNodes>
          <leafValues>
            -1.9051235914230347e-01 3.4222802519798279e-01</leafValues></_>
        <_>
          <internalNodes>
            0 -1 254 -3.9792031748220325e-04</internalNodes>
          <leafValues>
            3.1449133157730103e-01 -2.1192374825477600e-01</leafValues></_>
        <_>
          <internalNodes>
            0 -1 244 -8.9025916531682014e-03</internalNodes>
          <leafValues>
            -6.8040376901626587e-01 1.0485380142927170e-01</leafValues></_>
        <_>
          <internalNodes>
            0 -1 152 1.0948325507342815e-03</internalNodes>
          <leafValues>
            -3.6755043268203735e-01 1.7630426585674286e-01</leafValues></_>
        <_>
          <internalNodes>
            0 -1 154 -7.5318235903978348e-03</internalNodes>
          <leafValues>
            6.0476732254028320e-01 -1.5404383838176727e-01</leafValues></_>
        <_>
          <internalNodes>
            0 -1 183 -5.2732535550603643e-05</internalNodes>
          <leafValues>
            2.3610450327396393e-01 -3.0019482970237732e-01</leafValues></_>
        <_>
          <internalNodes>
            0 -1 206 -4.0580052882432938e-03</internalNodes>
          <leafValues>
            -7.9246789216995239e-01 7.7909991145133972e-02</leafValues></_>
        <_>
          <internalNodes>
            0 -1 263 -1.6936559695750475e-03</internalNodes>
          <leafValues>
            4.0142288804054260e-01 -1.7039504647254944e-01</leafValues></_>
        <_>
          <internalNodes>
            0 -1 40 -1.3988751452416182e-03</internalNodes>
          <leafValues>
            2.7570939064025879e-01 -2.5491169095039368e-01</leafValues></_></weakClassifiers></_>
    <!-- stage 8 -->
    <_>
      <maxWeakCount>33</maxWeakCount>
      <stageThreshold>-8.0069416761398315e-01</stageThreshold>
      <weakClassifiers>
        <_>
          <internalNodes>
            0 -1 122 -4.0878476575016975e-03</internalNodes>
          <leafValues>
            4.5566502213478088e-01 -1.6231086850166321e-01</leafValues></_>
        <_>
          <internalNodes>
            0 -1 185 1.7658170312643051e-02</internalNodes>
          <leafValues>
            -1.1479341238737106e-01 6.3221842050552368e-01</leafValues></_>
        <_>
          <internalNodes>
            0 -1 47 -1.0603233240544796e-03</internalNodes>
          <leafValues>
            1.7568536102771759e-01 -3.9819195866584778e-01</leafValues></_>
        <_>
          <internalNodes>
            0 -1 95 1.0756207630038261e-02</internalNodes>
          <leafValues>
            -4.1211774945259094e-01 1.6124705970287323e-01</leafValues></_>
        <_>
          <internalNodes>
            0 -1 42 -4.3748859316110611e-03</internalNodes>
          <leafValues>
            4.7406822443008423e-01 -1.3204847276210785e-01</leafValues></_>
        <_>
          <internalNodes>
            0 -1 107 -4.6533653512597084e-03</internalNodes>
          <leafValues>
            5.8535003662109375e-01 -1.2486004829406738e-01</leafValues></_>
        <_>
          <internalNodes>
            0 -1 21 1.0478947311639786e-02</internalNodes>
          <leafValues>
            -1.0598242282867432e-01 6.0222280025482178e-01</leafValues></_>
        <_>
          <internalNodes>
            0 -1 120 -1.1261912062764168e-02</internalNodes>
          <leafValues>
            -9.2065590620040894e-01 7.8410357236862183e-02</leafValues></_>
        <_>
          <internalNodes>
            0 -1 189 -1.8859343603253365e-02</internalNodes>
          <leafValues>
            -9.8787933588027954e-01 5.8108095079660416e-02</leafValues></_>
        <_>
          <internalNodes>
            0 -1 25 -2.2375965490937233e-02</internalNodes>
          <leafValues>
            -6.5885794162750244e-01 8.0799795687198639e-02</leafValues></_>
        <_>
          <internalNodes>
            0 -1 88 -4.2280100286006927e-02</internalNodes>
          <leafValues>
            4.3121010065078735e-01 -1.5730652213096619e-01</leafValues></_>
        <_>
          <internalNodes>
            0 -1 178 3.1773396767675877e-03</internalNodes>
          <leafValues>
            -3.2401037216186523e-01 2.5190648436546326e-01</leafValues></_>
        <_>
          <internalNodes>
            0 -1 231 -3.4879369195550680e-03</internalNodes>
          <leafValues>
            3.0322214961051941e-01 -2.1993213891983032e-01</leafValues></_>
        <_>
          <internalNodes>
            0 -1 113 -1.2154511641710997e-03</internalNodes>
          <leafValues>
            3.6205807328224182e-01 -1.7795924842357635e-01</leafValues></_>
        <_>
          <internalNodes>
            0 -1 217 -9.8974257707595825e-04</internalNodes>
          <leafValues>
            3.5577774047851562e-01 -2.0123226940631866e-01</leafValues></_>
        <_>
          <internalNodes>
            0 -1 246 -1.4677096903324127e-01</internalNodes>
          <leafValues>
            5.1116102933883667e-01 -1.2343351542949677e-01</leafValues></_>
        <_>
          <internalNodes>
            0 -1 160 3.2057356089353561e-02</internalNodes>
          <leafValues>
            -9.7473084926605225e-02 7.2684752941131592e-01</leafValues></_>
        <_>
          <internalNodes>
            0 -1 209 -1.7664287239313126e-02</internalNodes>
          <leafValues>
            -7.4330592155456543e-01 1.0712844133377075e-01</leafValues></_>
        <_>
          <internalNodes>
            0 -1 60 1.1343593709170818e-02</internalNodes>
          <leafValues>
            -5.9290111064910889e-01 1.0285775363445282e-01</leafValues></_>
        <_>
          <internalNodes>
            0 -1 203 2.3776933550834656e-02</internalNodes>
          <leafValues>
            -1.5956486761569977e-01 5.0970554351806641e-01</leafValues></_>
        <_>
          <internalNodes>
            0 -1 114 9.3819126486778259e-03</internalNodes>
          <leafValues>
            -1.3857823610305786e-01 5.0053369998931885e-01</leafValues></_>
        <_>
          <internalNodes>
            0 -1 9 -8.5710771381855011e-03</internalNodes>
          <leafValues>
            3.4953564405441284e-01 -2.0248587429523468e-01</leafValues></_>
        <_>
          <internalNodes>
            0 -1 126 2.2924058139324188e-02</internalNodes>
          <leafValues>
            -2.0707175135612488e-01 3.1915804743766785e-01</leafValues></_>
        <_>
          <internalNodes>
            0 -1 240 6.5116509795188904e-03</internalNodes>
          <leafValues>
            1.1824659258127213e-01 -6.2805044651031494e-01</leafValues></_>
        <_>
          <internalNodes>
            0 -1 179 -1.2974692508578300e-02</internalNodes>
          <leafValues>
            -8.1283271312713623e-01 7.6647676527500153e-02</leafValues></_>
        <_>
          <internalNodes>
            0 -1 65 -1.0323938913643360e-03</internalNodes>
          <leafValues>
            4.0131950378417969e-01 -1.7630566656589508e-01</leafValues></_>
        <_>
          <internalNodes>
            0 -1 233 5.6679202243685722e-03</internalNodes>
          <leafValues>
            -1.3778233528137207e-01 4.5909470319747925e-01</leafValues></_>
        <_>
          <internalNodes>
            0 -1 208 2.5431800168007612e-03</internalNodes>
          <leafValues>
            -1.5922352671623230e-01 4.6374267339706421e-01</leafValues></_>
        <_>
          <internalNodes>
            0 -1 224 2.2108093835413456e-03</internalNodes>
          <leafValues>
            -1.3169860839843750e-01 4.7951284050941467e-01</leafValues></_>
        <_>
          <internalNodes>
            0 -1 69 -1.8139737844467163e-01</internalNodes>
          <leafValues>
            5.9572798013687134e-01 -1.0556564480066299e-01</leafValues></_>
        <_>
          <internalNodes>
            0 -1 201 3.8005247712135315e-02</internalNodes>
          <leafValues>
            -2.0522129535675049e-01 3.6571043729782104e-01</leafValues></_>
        <_>
          <internalNodes>
            0 -1 116 -7.9918354749679565e-03</internalNodes>
          <leafValues>
            -5.3537088632583618e-01 1.2221562117338181e-01</leafValues></_>
        <_>
          <internalNodes>
            0 -1 143 -3.8848116993904114e-02</internalNodes>
          <leafValues>
            -9.6995133161544800e-01 5.6797631084918976e-02</leafValues></_></weakClassifiers></_>
    <!-- stage 9 -->
    <_>
      <maxWeakCount>31</maxWeakCount>
      <stageThreshold>-8.6024999618530273e-01</stageThreshold>
      <weakClassifiers>
        <_>
          <internalNodes>
            0 -1 62 1.7055809497833252e-02</internalNodes>
          <leafValues>
            -2.5918367505073547e-01 3.0171072483062744e-01</leafValues></_>
        <_>
          <internalNodes>
            0 -1 137 3.6729518324136734e-03</internalNodes>
          <leafValues>
            -2.3299404978752136e-01 3.0138745903968811e-01</leafValues></_>
        <_>
          <internalNodes>
            0 -1 36 8.1889675930142403e-03</internalNodes>
          <leafValues>
            -2.6890367269515991e-01 2.8717461228370667e-01</leafValues></_>
        <_>
          <internalNodes>
            0 -1 157 9.8266266286373138e-03</internalNodes>
          <leafValues>
            -1.6176830232143402e-01 6.6308671236038208e-01</leafValues></_>
        <_>
          <internalNodes>
            0 -1 74 -8.7475834880024195e-04</internalNodes>
          <leafValues>
            3.1397828459739685e-01 -2.4658684432506561e-01</leafValues></_>
        <_>
          <internalNodes>
            0 -1 135 2.8363396413624287e-03</internalNodes>
          <leafValues>
            1.6369968652725220e-01 -6.3383716344833374e-01</leafValues></_>
        <_>
          <internalNodes>
            0 -1 158 1.7989131156355143e-03</internalNodes>
          <leafValues>
            -1.5017057955265045e-01 5.0841861963272095e-01</leafValues></_>
        <_>
          <internalNodes>
            0 -1 32 3.6072703078389168e-03</internalNodes>
          <leafValues>
            1.5422290563583374e-01 -5.4084253311157227e-01</leafValues></_>
        <_>
          <internalNodes>
            0 -1 186 -3.5309870727360249e-03</internalNodes>
          <leafValues>
            -5.9921348094940186e-01 1.1392574012279510e-01</leafValues></_>
        <_>
          <internalNodes>
            0 -1 140 -2.9426487162709236e-03</internalNodes>
          <leafValues>
            2.7359560132026672e-01 -2.5829812884330750e-01</leafValues></_>
        <_>
          <internalNodes>
            0 -1 163 1.1147983372211456e-02</internalNodes>
          <leafValues>
            1.7695651948451996e-01 -4.7809064388275146e-01</leafValues></_>
        <_>
          <internalNodes>
            0 -1 211 2.0359128247946501e-03</internalNodes>
          <leafValues>
            -1.8674336373806000e-01 4.4823962450027466e-01</leafValues></_>
        <_>
          <internalNodes>
            0 -1 214 8.4678869461640716e-04</internalNodes>
          <leafValues>
            -2.0440514385700226e-01 3.5000652074813843e-01</leafValues></_>
        <_>
          <internalNodes>
            0 -1 70 2.0550973713397980e-03</internalNodes>
          <leafValues>
            9.6614651381969452e-02 -8.3955031633377075e-01</leafValues></_>
        <_>
          <internalNodes>
            0 -1 56 5.2519775927066803e-03</internalNodes>
          <leafValues>
            -1.3650418817996979e-01 6.1667561531066895e-01</leafValues></_>
        <_>
          <internalNodes>
            0 -1 1 -2.5694733858108521e-01</internalNodes>
          <leafValues>
            5.0358605384826660e-01 -1.3628974556922913e-01</leafValues></_>
        <_>
          <internalNodes>
            0 -1 127 -8.5979858413338661e-03</internalNodes>
          <leafValues>
            6.0480076074600220e-01 -1.1196115612983704e-01</leafValues></_>
        <_>
          <internalNodes>
            0 -1 10 1.3284884393215179e-02</internalNodes>
          <leafValues>
            -1.9726790487766266e-01 3.2593473792076111e-01</leafValues></_>
        <_>
          <internalNodes>
            0 -1 67 -4.8110354691743851e-03</internalNodes>
          <leafValues>
            -8.2442003488540649e-01 7.2390958666801453e-02</leafValues></_>
        <_>
          <internalNodes>
            0 -1 255 -8.0002266913652420e-03</internalNodes>
          <leafValues>
            -8.4672564268112183e-01 5.6787818670272827e-02</leafValues></_>
        <_>
          <internalNodes>
            0 -1 156 -1.5095362439751625e-02</internalNodes>
          <leafValues>
            -7.3742038011550903e-01 6.8717993795871735e-02</leafValues></_>
        <_>
          <internalNodes>
            0 -1 48 4.0091015398502350e-02</internalNodes>
          <leafValues>
            7.2939619421958923e-02 -7.5158661603927612e-01</leafValues></_>
        <_>
          <internalNodes>
            0 -1 111 -3.1027736142277718e-02</internalNodes>
          <leafValues>
            -9.7473257780075073e-01 4.9283649772405624e-02</leafValues></_>
        <_>
          <internalNodes>
            0 -1 242 -2.9689056100323796e-04</internalNodes>
          <leafValues>
            2.0472171902656555e-01 -3.0842572450637817e-01</leafValues></_>
        <_>
          <internalNodes>
            0 -1 192 -1.0411166585981846e-02</internalNodes>
          <leafValues>
            -8.6255979537963867e-01 7.3648020625114441e-02</leafValues></_>
        <_>
          <internalNodes>
            0 -1 262 2.1266043186187744e-03</internalNodes>
          <leafValues>
            -3.3478561043739319e-01 2.4290297925472260e-01</leafValues></_>
        <_>
          <internalNodes>
            0 -1 198 -1.0423216223716736e-01</internalNodes>
          <leafValues>
            6.1703938245773315e-01 -1.1620748043060303e-01</leafValues></_>
        <_>
          <internalNodes>
            0 -1 232 -3.9162151515483856e-02</internalNodes>
          <leafValues>
            -8.6606973409652710e-01 9.2900447547435760e-02</leafValues></_>
        <_>
          <internalNodes>
            0 -1 77 9.0439169434830546e-04</internalNodes>
          <leafValues>
            -2.7165183424949646e-01 2.6565304398536682e-01</leafValues></_>
        <_>
          <internalNodes>
            0 -1 23 2.4391215294599533e-02</internalNodes>
          <leafValues>
            -2.0783659815788269e-01 3.3819419145584106e-01</leafValues></_>
        <_>
          <internalNodes>
            0 -1 110 -6.0578398406505585e-03</internalNodes>
          <leafValues>
            5.2584671974182129e-01 -1.8056921660900116e-01</leafValues></_></weakClassifiers></_>
    <!-- stage 10 -->
    <_>
      <maxWeakCount>31</maxWeakCount>
      <stageThreshold>-8.3766621351242065e-01</stageThreshold>
      <weakClassifiers>
        <_>
          <internalNodes>
            0 -1 216 -1.9178160000592470e-03</internalNodes>
          <leafValues>
            3.3717104792594910e-01 -2.6285713911056519e-01</leafValues></_>
        <_>
          <internalNodes>
            0 -1 207 2.1474012173712254e-03</internalNodes>
          <leafValues>
            -4.6562391519546509e-01 1.7422726750373840e-01</leafValues></_>
        <_>
          <internalNodes>
            0 -1 15 -2.7550985105335712e-03</internalNodes>
          <leafValues>
            1.8627454340457916e-01 -4.1838392615318298e-01</leafValues></_>
        <_>
          <internalNodes>
            0 -1 151 3.3190697431564331e-02</internalNodes>
          <leafValues>
            -4.2905542254447937e-01 2.0811212062835693e-01</leafValues></_>
        <_>
          <internalNodes>
            0 -1 270 -7.8506086720153689e-04</internalNodes>
          <leafValues>
            2.3066365718841553e-01 -3.1619098782539368e-01</leafValues></_>
        <_>
          <internalNodes>
            0 -1 180 -1.2364249676465988e-02</internalNodes>
          <leafValues>
            4.5454001426696777e-01 -1.8017990887165070e-01</leafValues></_>
        <_>
          <internalNodes>
            0 -1 153 9.2663965187966824e-04</internalNodes>
          <leafValues>
            -2.9346111416816711e-01 2.8954964876174927e-01</leafValues></_>
        <_>
          <internalNodes>
            0 -1 269 -1.8555544316768646e-02</internalNodes>
          <leafValues>
            -3.7964084744453430e-01 2.2236844897270203e-01</leafValues></_>
        <_>
          <internalNodes>
            0 -1 89 -3.1282622367143631e-03</internalNodes>
          <leafValues>
            5.0544399023056030e-01 -1.2287834286689758e-01</leafValues></_>
        <_>
          <internalNodes>
            0 -1 97 -2.0101754926145077e-03</internalNodes>
          <leafValues>
            1.9493529200553894e-01 -3.8272711634635925e-01</leafValues></_>
        <_>
          <internalNodes>
            0 -1 124 -7.3889619670808315e-05</internalNodes>
          <leafValues>
            -1.0714901983737946e-01 6.5851366519927979e-01</leafValues></_>
        <_>
          <internalNodes>
            0 -1 243 -4.1869428241625428e-04</internalNodes>
          <leafValues>
            2.8581565618515015e-01 -2.5798687338829041e-01</leafValues></_>
        <_>
          <internalNodes>
            0 -1 34 -3.9825905114412308e-03</internalNodes>
          <leafValues>
            3.0219042301177979e-01 -2.5865587592124939e-01</leafValues></_>
        <_>
          <internalNodes>
            0 -1 171 1.0176246985793114e-02</internalNodes>
          <leafValues>
            -1.1806689202785492e-01 6.9814878702163696e-01</leafValues></_>
        <_>
          <internalNodes>
            0 -1 39 2.4442464113235474e-02</internalNodes>
          <leafValues>
            1.4665719866752625e-01 -7.2537928819656372e-01</leafValues></_>
        <_>
          <internalNodes>
            0 -1 248 -9.9886283278465271e-03</internalNodes>
          <leafValues>
            4.6451762318611145e-01 -2.2107464075088501e-01</leafValues></_>
        <_>
          <internalNodes>
            0 -1 260 7.5050033628940582e-03</internalNodes>
          <leafValues>
            -1.0002641379833221e-01 7.2899162769317627e-01</leafValues></_>
        <_>
          <internalNodes>
            0 -1 7 8.9869368821382523e-03</internalNodes>
          <leafValues>
            -4.8092845082283020e-01 1.9473983347415924e-01</leafValues></_>
        <_>
          <internalNodes>
            0 -1 194 1.7398644704371691e-03</internalNodes>
          <leafValues>
            -1.8716047704219818e-01 4.5242908596992493e-01</leafValues></_>
        <_>
          <internalNodes>
            0 -1 176 -7.1190558373928070e-03</internalNodes>
          <leafValues>
            -6.8969339132308960e-01 1.1674902588129044e-01</leafValues></_>
        <_>
          <internalNodes>
            0 -1 35 1.8303602933883667e-02</internalNodes>
          <leafValues>
            -1.7961294949054718e-01 4.3783432245254517e-01</leafValues></_>
        <_>
          <internalNodes>
            0 -1 3 -1.5970094129443169e-02</internalNodes>
          <leafValues>
            3.0859941244125366e-01 -2.6177620887756348e-01</leafValues></_>
        <_>
          <internalNodes>
            0 -1 253 -1.4154092641547322e-03</internalNodes>
          <leafValues>
            3.7268674373626709e-01 -2.5993812084197998e-01</leafValues></_>
        <_>
          <internalNodes>
            0 -1 228 4.4582867994904518e-03</internalNodes>
          <leafValues>
            -1.7766599357128143e-01 4.4283363223075867e-01</leafValues></_>
        <_>
          <internalNodes>
            0 -1 250 4.7313766553997993e-03</internalNodes>
          <leafValues>
            -2.5342839956283569e-01 3.3742785453796387e-01</leafValues></_>
        <_>
          <internalNodes>
            0 -1 235 -3.8095791824162006e-03</internalNodes>
          <leafValues>
            -6.5537226200103760e-01 1.4718456566333771e-01</leafValues></_>
        <_>
          <internalNodes>
            0 -1 195 5.8145290240645409e-03</internalNodes>
          <leafValues>
            -1.6306096315383911e-01 5.7902556657791138e-01</leafValues></_>
        <_>
          <internalNodes>
            0 -1 129 9.1156270354986191e-04</internalNodes>
          <leafValues>
            -1.7144815623760223e-01 4.4179806113243103e-01</leafValues></_>
        <_>
          <internalNodes>
            0 -1 265 -1.0697821155190468e-02</internalNodes>
          <leafValues>
            -3.8047510385513306e-01 2.4738210439682007e-01</leafValues></_>
        <_>
          <internalNodes>
            0 -1 271 -2.0546801388263702e-02</internalNodes>
          <leafValues>
            4.3753132224082947e-01 -2.0032165944576263e-01</leafValues></_>
        <_>
          <internalNodes>
            0 -1 38 8.6712278425693512e-03</internalNodes>
          <leafValues>
            -1.0483840852975845e-01 6.3577389717102051e-01</leafValues></_></weakClassifiers></_>
    <!-- stage 11 -->
    <_>
      <maxWeakCount>18</maxWeakCount>
      <stageThreshold>-1.0170768499374390e+00</stageThreshold>
      <weakClassifiers>
        <_>
          <internalNodes>
            0 -1 118 1.9419990712776780e-03</internalNodes>
          <leafValues>
            -1.1926605552434921e-01 8.5956418514251709e-01</leafValues></_>
        <_>
          <internalNodes>
            0 -1 218 -1.8532742979004979e-03</internalNodes>
          <leafValues>
            4.7864842414855957e-01 -2.5168666243553162e-01</leafValues></_>
        <_>
          <internalNodes>
            0 -1 174 -8.8168424554169178e-04</internalNodes>
          <leafValues>
            7.4915266036987305e-01 -2.1090075373649597e-01</leafValues></_>
        <_>
          <internalNodes>
            0 -1 78 5.4109552875161171e-03</internalNodes>
          <leafValues>
            -2.1198244392871857e-01 7.0839488506317139e-01</leafValues></_>
        <_>
          <internalNodes>
            0 -1 163 -7.7214529737830162e-03</internalNodes>
          <leafValues>
            -6.9293546676635742e-01 2.3743881285190582e-01</leafValues></_>
        <_>
          <internalNodes>
            0 -1 14 1.5058085322380066e-02</internalNodes>
          <leafValues>
            -2.0669306814670563e-01 7.4614572525024414e-01</leafValues></_>
        <_>
          <internalNodes>
            0 -1 18 2.6397125329822302e-03</internalNodes>
          <leafValues>
            -2.1184052526950836e-01 7.1892017126083374e-01</leafValues></_>
        <_>
          <internalNodes>
            0 -1 102 2.4803128326311707e-04</internalNodes>
          <leafValues>
            -3.3052659034729004e-01 4.5822241902351379e-01</leafValues></_>
        <_>
          <internalNodes>
            0 -1 247 -8.0476590665057302e-04</internalNodes>
          <leafValues>
            7.2073638439178467e-01 -2.0930084586143494e-01</leafValues></_>
        <_>
          <internalNodes>
            0 -1 136 -5.2017113193869591e-03</internalNodes>
          <leafValues>
            5.8518338203430176e-01 -2.5369808077812195e-01</leafValues></_>
        <_>
          <internalNodes>
            0 -1 44 -1.1249997187405825e-03</internalNodes>
          <leafValues>
            3.3827698230743408e-01 -4.9809771776199341e-01</leafValues></_>
        <_>
          <internalNodes>
            0 -1 16 -1.4142040163278580e-03</internalNodes>
          <leafValues>
            6.7744177579879761e-01 -2.3382021486759186e-01</leafValues></_>
        <_>
          <internalNodes>
            0 -1 188 -8.0351601354777813e-04</internalNodes>
          <leafValues>
            4.6736976504325867e-01 -3.0664807558059692e-01</leafValues></_>
        <_>
          <internalNodes>
            0 -1 27 -7.3651030659675598e-02</internalNodes>
          <leafValues>
            8.7897402048110962e-01 -1.6135296225547791e-01</leafValues></_>
        <_>
          <internalNodes>
            0 -1 2 5.5006222100928426e-04</internalNodes>
          <leafValues>
            5.4553729295730591e-01 -2.8789085149765015e-01</leafValues></_>
        <_>
          <internalNodes>
            0 -1 236 -1.5825900482013822e-03</internalNodes>
          <leafValues>
            6.2022441625595093e-01 -2.2928166389465332e-01</leafValues></_>
        <_>
          <internalNodes>
            0 -1 229 -1.4611288905143738e-02</internalNodes>
          <leafValues>
            -5.2845692634582520e-01 3.1642165780067444e-01</leafValues></_>
        <_>
          <internalNodes>
            0 -1 55 1.8914960091933608e-03</internalNodes>
          <leafValues>
            -3.4328764677047729e-01 5.2692544460296631e-01</leafValues></_></weakClassifiers></_></stages>
  <features>
    <_>
      <rects>
        <_>
          0 3 24 27 -1.</_>
        <_>
          6 3 12 27 2.</_></rects>
      <tilted>0</tilted></_>
    <_>
      <rects>
        <_>
          0 3 24 22 -1.</_>
        <_>
          8 3 8 22 3.</_></rects>
      <tilted>0</tilted></_>
    <_>
      <rects>
        <_>
          2 1 12 4 -1.</_>
        <_>
          2 2 12 2 2.</_></rects>
      <tilted>0</tilted></_>
    <_>
      <rects>
        <_>
          3 7 12 2 -1.</_>
        <_>
          9 7 6 2 2.</_></rects>
      <tilted>0</tilted></_>
    <_>
      <rects>
        <_>
          3 11 12 5 -1.</_>
        <_>
          7 11 4 5 3.</_></rects>
      <tilted>0</tilted></_>
    <_>
      <rects>
        <_>
          4 3 8 10 -1.</_>
        <_>
          4 8 8 5 2.</_></rects>
      <tilted>0</tilted></_>
    <_>
      <rects>
        <_>
          4 8 3 1 -1.</_>
        <_>
          5 8 1 1 3.</_></rects>
      <tilted>0</tilted></_>
    <_>
      <rects>
        <_>
          4 11 18 15 -1.</_>
        <_>
          4 16 18 5 3.</_></rects>
      <tilted>0</tilted></_>
    <_>
      <rects>
        <_>
          4 16 20 13 -1.</_>
        <_>
          9 16 10 13 2.</_></rects>
      <tilted>0</tilted></_>
    <_>
      <rects>
        <_>
          4 22 12 6 -1.</_>
        <_>
          4 24 12 2 3.</_></rects>
      <tilted>0</tilted></_>
    <_>
      <rects>
        <_>
          4 25 18 4 -1.</_>
        <_>
          4 27 18 2 2.</_></rects>
      <tilted>0</tilted></_>
    <_>
      <rects>
        <_>
          4 26 15 4 -1.</_>
        <_>
          4 28 15 2 2.</_></rects>
      <tilted>0</tilted></_>
    <_>
      <rects>
        <_>
          5 7 2 3 -1.</_>
        <_>
          6 7 1 3 2.</_></rects>
      <tilted>0</tilted></_>
    <_>
      <rects>
        <_>
          5 7 3 3 -1.</_>
        <_>
          6 7 1 3 3.</_></rects>
      <tilted>0</tilted></_>
    <_>
      <rects>
        <_>
          5 9 18 4 -1.</_>
        <_>
          5 9 9 2 2.</_>
        <_>
          14 11 9 2 2.</_></rects>
      <tilted>0</tilted></_>
    <_>
      <rects>
        <_>
          5 10 4 4 -1.</_>
        <_>
          7 10 2 4 2.</_></rects>
      <tilted>0</tilted></_>
    <_>
      <rects>
        <_>
          5 11 3 5 -1.</_>
        <_>
          6 11 1 5 3.</_></rects>
      <tilted>0</tilted></_>
    <_>
      <rects>
        <_>
          5 13 4 2 -1.</_>
        <_>
          7 13 2 2 2.</_></rects>
      <tilted>0</tilted></_>
    <_>
      <rects>
        <_>
          5 19 3 4 -1.</_>
        <_>
          4 20 3 2 2.</_></rects>
      <tilted>1</tilted></_>
    <_>
      <rects>
        <_>
          6 2 14 28 -1.</_>
        <_>
          6 16 14 14 2.</_></rects>
      <tilted>0</tilted></_>
    <_>
      <rects>
        <_>
          6 4 6 18 -1.</_>
        <_>
          8 10 2 6 9.</_></rects>
      <tilted>0</tilted></_>
    <_>
      <rects>
        <_>
          6 4 7 3 -1.</_>
        <_>
          6 5 7 1 3.</_></rects>
      <tilted>0</tilted></_>
    <_>
      <rects>
        <_>
          6 5 9 6 -1.</_>
        <_>
          9 7 3 2 9.</_></rects>
      <tilted>0</tilted></_>
    <_>
      <rects>
        <_>
          6 6 8 8 -1.</_>
        <_>
          6 6 4 4 2.</_>
        <_>
          10 10 4 4 2.</_></rects>
      <tilted>0</tilted></_>
    <_>
      <rects>
        <_>
          6 7 4 1 -1.</_>
        <_>
          8 7 2 1 2.</_></rects>
      <tilted>0</tilted></_>
    <_>
      <rects>
        <_>
          6 7 9 4 -1.</_>
        <_>
          9 7 3 4 3.</_></rects>
      <tilted>0</tilted></_>
    <_>
      <rects>
        <_>
          6 8 6 9 -1.</_>
        <_>
          8 8 2 9 3.</_></rects>
      <tilted>0</tilted></_>
    <_>
      <rects>
        <_>
          6 9 6 9 -1.</_>
        <_>
          8 12 2 3 9.</_></rects>
      <tilted>0</tilted></_>
    <_>
      <rects>
        <_>
          6 24 16 6 -1.</_>
        <_>
          6 27 16 3 2.</_></rects>
      <tilted>0</tilted></_>
    <_>
      <rects>
        <_>
          7 4 10 20 -1.</_>
        <_>
          7 14 10 10 2.</_></rects>
      <tilted>0</tilted></_>
    <_>
      <rects>
        <_>
          7 5 2 6 -1.</_>
        <_>
          7 5 1 6 2.</_></rects>
      <tilted>1</tilted></_>
    <_>
      <rects>
        <_>
          7 5 2 2 -1.</_>
        <_>
          7 6 2 1 2.</_></rects>
      <tilted>0</tilted></_>
    <_>
      <rects>
        <_>
          7 5 12 1 -1.</_>
        <_>
          7 5 6 1 2.</_></rects>
      <tilted>1</tilted></_>
    <_>
      <rects>
        <_>
          7 6 3 6 -1.</_>
        <_>
          7 9 3 3 2.</_></rects>
      <tilted>0</tilted></_>
    <_>
      <rects>
        <_>
          7 8 8 1 -1.</_>
        <_>
          11 8 4 1 2.</_></rects>
      <tilted>0</tilted></_>
    <_>
      <rects>
        <_>
          7 9 16 6 -1.</_>
        <_>
          7 9 8 3 2.</_>
        <_>
          15 12 8 3 2.</_></rects>
      <tilted>0</tilted></_>
    <_>
      <rects>
        <_>
          7 10 9 7 -1.</_>
        <_>
          10 10 3 7 3.</_></rects>
      <tilted>0</tilted></_>
    <_>
      <rects>
        <_>
          7 10 10 2 -1.</_>
        <_>
          7 10 5 2 2.</_></rects>
      <tilted>1</tilted></_>
    <_>
      <rects>
        <_>
          7 11 5 6 -1.</_>
        <_>
          7 11 5 3 2.</_></rects>
      <tilted>1</tilted></_>
    <_>
      <rects>
        <_>
          7 13 12 3 -1.</_>
        <_>
          10 13 6 3 2.</_></rects>
      <tilted>0</tilted></_>
    <_>
      <rects>
        <_>
          7 16 4 3 -1.</_>
        <_>
          8 16 2 3 2.</_></rects>
      <tilted>0</tilted></_>
    <_>
      <rects>
        <_>
          8 3 4 3 -1.</_>
        <_>
          8 4 4 1 3.</_></rects>
      <tilted>0</tilted></_>
    <_>
      <rects>
        <_>
          8 3 4 4 -1.</_>
        <_>
          8 4 4 2 2.</_></rects>
      <tilted>0</tilted></_>
    <_>
      <rects>
        <_>
          8 5 3 6 -1.</_>
        <_>
          8 8 3 3 2.</_></rects>
      <tilted>0</tilted></_>
    <_>
      <rects>
        <_>
          8 6 1 6 -1.</_>
        <_>
          8 9 1 3 2.</_></rects>
      <tilted>0</tilted></_>
    <_>
      <rects>
        <_>
          8 6 12 9 -1.</_>
        <_>
          12 9 4 3 9.</_></rects>
      <tilted>0</tilted></_>
    <_>
      <rects>
        <_>
          8 6 9 18 -1.</_>
        <_>
          8 15 9 9 2.</_></rects>
      <tilted>0</tilted></_>
    <_>
      <rects>
        <_>
          8 8 3 4 -1.</_>
        <_>
          8 10 3 2 2.</_></rects>
      <tilted>0</tilted></_>
    <_>
      <rects>
        <_>
          8 8 12 14 -1.</_>
        <_>
          8 8 6 7 2.</_>
        <_>
          14 15 6 7 2.</_></rects>
      <tilted>0</tilted></_>
    <_>
      <rects>
        <_>
          8 8 11 8 -1.</_>
        <_>
          8 10 11 4 2.</_></rects>
      <tilted>0</tilted></_>
    <_>
      <rects>
        <_>
          8 9 1 4 -1.</_>
        <_>
          8 11 1 2 2.</_></rects>
      <tilted>0</tilted></_>
    <_>
      <rects>
        <_>
          8 11 12 9 -1.</_>
        <_>
          12 14 4 3 9.</_></rects>
      <tilted>0</tilted></_>
    <_>
      <rects>
        <_>
          8 13 3 3 -1.</_>
        <_>
          9 13 1 3 3.</_></rects>
      <tilted>0</tilted></_>
    <_>
      <rects>
        <_>
          8 13 9 8 -1.</_>
        <_>
          8 17 9 4 2.</_></rects>
      <tilted>0</tilted></_>
    <_>
      <rects>
        <_>
          8 13 10 8 -1.</_>
        <_>
          8 17 10 4 2.</_></rects>
      <tilted>0</tilted></_>
    <_>
      <rects>
        <_>
          8 13 11 4 -1.</_>
        <_>
          7 14 11 2 2.</_></rects>
      <tilted>1</tilted></_>
    <_>
      <rects>
        <_>
          8 15 3 2 -1.</_>
        <_>
          9 15 1 2 3.</_></rects>
      <tilted>0</tilted></_>
    <_>
      <rects>
        <_>
          8 26 9 4 -1.</_>
        <_>
          8 28 9 2 2.</_></rects>
      <tilted>0</tilted></_>
    <_>
      <rects>
        <_>
          9 1 15 15 -1.</_>
        <_>
          14 6 5 5 9.</_></rects>
      <tilted>0</tilted></_>
    <_>
      <rects>
        <_>
          9 1 15 24 -1.</_>
        <_>
          14 9 5 8 9.</_></rects>
      <tilted>0</tilted></_>
    <_>
      <rects>
        <_>
          9 3 4 26 -1.</_>
        <_>
          9 16 4 13 2.</_></rects>
      <tilted>0</tilted></_>
    <_>
      <rects>
        <_>
          9 4 2 2 -1.</_>
        <_>
          9 5 2 1 2.</_></rects>
      <tilted>0</tilted></_>
    <_>
      <rects>
        <_>
          9 4 4 5 -1.</_>
        <_>
          9 4 2 5 2.</_></rects>
      <tilted>1</tilted></_>
    <_>
      <rects>
        <_>
          9 4 9 9 -1.</_>
        <_>
          12 7 3 9 3.</_></rects>
      <tilted>1</tilted></_>
    <_>
      <rects>
        <_>
          9 4 5 22 -1.</_>
        <_>
          9 15 5 11 2.</_></rects>
      <tilted>0</tilted></_>
    <_>
      <rects>
        <_>
          9 5 2 2 -1.</_>
        <_>
          9 5 1 1 2.</_>
        <_>
          10 6 1 1 2.</_></rects>
      <tilted>0</tilted></_>
    <_>
      <rects>
        <_>
          9 5 15 12 -1.</_>
        <_>
          9 8 15 6 2.</_></rects>
      <tilted>0</tilted></_>
    <_>
      <rects>
        <_>
          9 6 3 4 -1.</_>
        <_>
          10 6 1 4 3.</_></rects>
      <tilted>0</tilted></_>
    <_>
      <rects>
        <_>
          9 6 11 18 -1.</_>
        <_>
          9 15 11 9 2.</_></rects>
      <tilted>0</tilted></_>
    <_>
      <rects>
        <_>
          9 7 15 9 -1.</_>
        <_>
          14 10 5 3 9.</_></rects>
      <tilted>0</tilted></_>
    <_>
      <rects>
        <_>
          9 8 3 1 -1.</_>
        <_>
          10 8 1 1 3.</_></rects>
      <tilted>0</tilted></_>
    <_>
      <rects>
        <_>
          9 8 1 6 -1.</_>
        <_>
          9 11 1 3 2.</_></rects>
      <tilted>0</tilted></_>
    <_>
      <rects>
        <_>
          9 8 8 2 -1.</_>
        <_>
          9 8 4 2 2.</_></rects>
      <tilted>1</tilted></_>
    <_>
      <rects>
        <_>
          9 8 12 9 -1.</_>
        <_>
          13 11 4 3 9.</_></rects>
      <tilted>0</tilted></_>
    <_>
      <rects>
        <_>
          9 9 5 2 -1.</_>
        <_>
          9 10 5 1 2.</_></rects>
      <tilted>0</tilted></_>
    <_>
      <rects>
        <_>
          9 10 2 2 -1.</_>
        <_>
          9 10 1 2 2.</_></rects>
      <tilted>1</tilted></_>
    <_>
      <rects>
        <_>
          9 10 6 2 -1.</_>
        <_>
          9 10 3 2 2.</_></rects>
      <tilted>1</tilted></_>
    <_>
      <rects>
        <_>
          9 11 2 4 -1.</_>
        <_>
          9 11 1 2 2.</_>
        <_>
          10 13 1 2 2.</_></rects>
      <tilted>0</tilted></_>
    <_>
      <rects>
        <_>
          9 11 2 6 -1.</_>
        <_>
          10 11 1 6 2.</_></rects>
      <tilted>0</tilted></_>
    <_>
      <rects>
        <_>
          9 11 6 2 -1.</_>
        <_>
          9 11 3 2 2.</_></rects>
      <tilted>1</tilted></_>
    <_>
      <rects>
        <_>
          9 13 3 4 -1.</_>
        <_>
          9 13 3 2 2.</_></rects>
      <tilted>1</tilted></_>
    <_>
      <rects>
        <_>
          9 15 3 2 -1.</_>
        <_>
          10 15 1 2 3.</_></rects>
      <tilted>0</tilted></_>
    <_>
      <rects>
        <_>
          9 16 2 4 -1.</_>
        <_>
          9 18 2 2 2.</_></rects>
      <tilted>0</tilted></_>
    <_>
      <rects>
        <_>
          9 16 10 2 -1.</_>
        <_>
          14 16 5 2 2.</_></rects>
      <tilted>0</tilted></_>
    <_>
      <rects>
        <_>
          9 24 7 6 -1.</_>
        <_>
          9 26 7 2 3.</_></rects>
      <tilted>0</tilted></_>
    <_>
      <rects>
        <_>
          10 1 6 28 -1.</_>
        <_>
          10 15 6 14 2.</_></rects>
      <tilted>0</tilted></_>
    <_>
      <rects>
        <_>
          10 1 9 12 -1.</_>
        <_>
          10 5 9 4 3.</_></rects>
      <tilted>0</tilted></_>
    <_>
      <rects>
        <_>
          10 2 3 7 -1.</_>
        <_>
          11 3 1 7 3.</_></rects>
      <tilted>1</tilted></_>
    <_>
      <rects>
        <_>
          10 2 10 9 -1.</_>
        <_>
          10 5 10 3 3.</_></rects>
      <tilted>0</tilted></_>
    <_>
      <rects>
        <_>
          10 3 3 4 -1.</_>
        <_>
          10 4 3 2 2.</_></rects>
      <tilted>0</tilted></_>
    <_>
      <rects>
        <_>
          10 3 9 7 -1.</_>
        <_>
          13 6 3 7 3.</_></rects>
      <tilted>1</tilted></_>
    <_>
      <rects>
        <_>
          10 3 4 3 -1.</_>
        <_>
          10 4 4 1 3.</_></rects>
      <tilted>0</tilted></_>
    <_>
      <rects>
        <_>
          10 3 7 8 -1.</_>
        <_>
          10 5 7 4 2.</_></rects>
      <tilted>0</tilted></_>
    <_>
      <rects>
        <_>
          10 4 3 5 -1.</_>
        <_>
          11 5 1 5 3.</_></rects>
      <tilted>1</tilted></_>
    <_>
      <rects>
        <_>
          10 4 6 6 -1.</_>
        <_>
          12 6 2 2 9.</_></rects>
      <tilted>0</tilted></_>
    <_>
      <rects>
        <_>
          10 4 4 4 -1.</_>
        <_>
          10 4 2 4 2.</_></rects>
      <tilted>1</tilted></_>
    <_>
      <rects>
        <_>
          10 4 10 1 -1.</_>
        <_>
          10 4 5 1 2.</_></rects>
      <tilted>1</tilted></_>
    <_>
      <rects>
        <_>
          10 4 5 4 -1.</_>
        <_>
          10 6 5 2 2.</_></rects>
      <tilted>0</tilted></_>
    <_>
      <rects>
        <_>
          10 5 11 10 -1.</_>
        <_>
          10 10 11 5 2.</_></rects>
      <tilted>0</tilted></_>
    <_>
      <rects>
        <_>
          10 6 6 4 -1.</_>
        <_>
          12 6 2 4 3.</_></rects>
      <tilted>0</tilted></_>
    <_>
      <rects>
        <_>
          10 6 12 4 -1.</_>
        <_>
          10 6 6 4 2.</_></rects>
      <tilted>1</tilted></_>
    <_>
      <rects>
        <_>
          10 7 4 3 -1.</_>
        <_>
          11 7 2 3 2.</_></rects>
      <tilted>0</tilted></_>
    <_>
      <rects>
        <_>
          10 7 6 2 -1.</_>
        <_>
          10 7 3 1 2.</_>
        <_>
          13 8 3 1 2.</_></rects>
      <tilted>0</tilted></_>
    <_>
      <rects>
        <_>
          10 7 5 4 -1.</_>
        <_>
          10 9 5 2 2.</_></rects>
      <tilted>0</tilted></_>
    <_>
      <rects>
        <_>
          10 8 1 4 -1.</_>
        <_>
          10 10 1 2 2.</_></rects>
      <tilted>0</tilted></_>
    <_>
      <rects>
        <_>
          10 8 3 2 -1.</_>
        <_>
          11 8 1 2 3.</_></rects>
      <tilted>0</tilted></_>
    <_>
      <rects>
        <_>
          10 10 5 6 -1.</_>
        <_>
          8 12 5 2 3.</_></rects>
      <tilted>1</tilted></_>
    <_>
      <rects>
        <_>
          10 10 6 2 -1.</_>
        <_>
          10 11 6 1 2.</_></rects>
      <tilted>0</tilted></_>
    <_>
      <rects>
        <_>
          10 10 6 3 -1.</_>
        <_>
          10 11 6 1 3.</_></rects>
      <tilted>0</tilted></_>
    <_>
      <rects>
        <_>
          10 11 1 4 -1.</_>
        <_>
          10 12 1 2 2.</_></rects>
      <tilted>0</tilted></_>
    <_>
      <rects>
        <_>
          10 11 6 2 -1.</_>
        <_>
          10 11 6 1 2.</_></rects>
      <tilted>1</tilted></_>
    <_>
      <rects>
        <_>
          10 12 6 9 -1.</_>
        <_>
          12 15 2 3 9.</_></rects>
      <tilted>0</tilted></_>
    <_>
      <rects>
        <_>
          10 13 6 9 -1.</_>
        <_>
          12 16 2 3 9.</_></rects>
      <tilted>0</tilted></_>
    <_>
      <rects>
        <_>
          10 14 3 1 -1.</_>
        <_>
          11 14 1 1 3.</_></rects>
      <tilted>0</tilted></_>
    <_>
      <rects>
        <_>
          10 14 6 2 -1.</_>
        <_>
          13 14 3 2 2.</_></rects>
      <tilted>0</tilted></_>
    <_>
      <rects>
        <_>
          10 14 5 8 -1.</_>
        <_>
          10 18 5 4 2.</_></rects>
      <tilted>0</tilted></_>
    <_>
      <rects>
        <_>
          10 14 7 10 -1.</_>
        <_>
          10 19 7 5 2.</_></rects>
      <tilted>0</tilted></_>
    <_>
      <rects>
        <_>
          10 14 9 6 -1.</_>
        <_>
          10 17 9 3 2.</_></rects>
      <tilted>0</tilted></_>
    <_>
      <rects>
        <_>
          10 15 3 1 -1.</_>
        <_>
          11 15 1 1 3.</_></rects>
      <tilted>0</tilted></_>
    <_>
      <rects>
        <_>
          10 15 2 2 -1.</_>
        <_>
          10 15 1 1 2.</_>
        <_>
          11 16 1 1 2.</_></rects>
      <tilted>0</tilted></_>
    <_>
      <rects>
        <_>
          10 15 8 4 -1.</_>
        <_>
          10 15 4 2 2.</_>
        <_>
          14 17 4 2 2.</_></rects>
      <tilted>0</tilted></_>
    <_>
      <rects>
        <_>
          10 18 4 4 -1.</_>
        <_>
          10 19 4 2 2.</_></rects>
      <tilted>0</tilted></_>
    <_>
      <rects>
        <_>
          10 18 5 4 -1.</_>
        <_>
          10 19 5 2 2.</_></rects>
      <tilted>0</tilted></_>
    <_>
      <rects>
        <_>
          10 28 5 2 -1.</_>
        <_>
          10 29 5 1 2.</_></rects>
      <tilted>0</tilted></_>
    <_>
      <rects>
        <_>
          11 1 12 2 -1.</_>
        <_>
          14 4 6 2 2.</_></rects>
      <tilted>1</tilted></_>
    <_>
      <rects>
        <_>
          11 2 12 12 -1.</_>
        <_>
          15 6 4 4 9.</_></rects>
      <tilted>0</tilted></_>
    <_>
      <rects>
        <_>
          11 2 10 28 -1.</_>
        <_>
          16 2 5 28 2.</_></rects>
      <tilted>0</tilted></_>
    <_>
      <rects>
        <_>
          11 3 2 4 -1.</_>
        <_>
          11 3 1 4 2.</_></rects>
      <tilted>1</tilted></_>
    <_>
      <rects>
        <_>
          11 3 4 6 -1.</_>
        <_>
          11 3 2 6 2.</_></rects>
      <tilted>1</tilted></_>
    <_>
      <rects>
        <_>
          11 4 1 2 -1.</_>
        <_>
          11 5 1 1 2.</_></rects>
      <tilted>0</tilted></_>
    <_>
      <rects>
        <_>
          11 4 4 2 -1.</_>
        <_>
          11 4 2 2 2.</_></rects>
      <tilted>1</tilted></_>
    <_>
      <rects>
        <_>
          11 5 9 1 -1.</_>
        <_>
          14 5 3 1 3.</_></rects>
      <tilted>0</tilted></_>
    <_>
      <rects>
        <_>
          11 5 7 12 -1.</_>
        <_>
          11 9 7 4 3.</_></rects>
      <tilted>0</tilted></_>
    <_>
      <rects>
        <_>
          11 5 8 6 -1.</_>
        <_>
          11 8 8 3 2.</_></rects>
      <tilted>0</tilted></_>
    <_>
      <rects>
        <_>
          11 6 4 3 -1.</_>
        <_>
          12 6 2 3 2.</_></rects>
      <tilted>0</tilted></_>
    <_>
      <rects>
        <_>
          11 7 1 3 -1.</_>
        <_>
          10 8 1 1 3.</_></rects>
      <tilted>1</tilted></_>
    <_>
      <rects>
        <_>
          11 7 5 4 -1.</_>
        <_>
          11 7 5 2 2.</_></rects>
      <tilted>1</tilted></_>
    <_>
      <rects>
        <_>
          11 8 2 3 -1.</_>
        <_>
          11 8 1 3 2.</_></rects>
      <tilted>1</tilted></_>
    <_>
      <rects>
        <_>
          11 9 5 4 -1.</_>
        <_>
          10 10 5 2 2.</_></rects>
      <tilted>1</tilted></_>
    <_>
      <rects>
        <_>
          11 11 8 4 -1.</_>
        <_>
          13 13 4 4 2.</_></rects>
      <tilted>1</tilted></_>
    <_>
      <rects>
        <_>
          11 11 4 4 -1.</_>
        <_>
          11 12 4 2 2.</_></rects>
      <tilted>0</tilted></_>
    <_>
      <rects>
        <_>
          11 12 6 9 -1.</_>
        <_>
          13 15 2 3 9.</_></rects>
      <tilted>0</tilted></_>
    <_>
      <rects>
        <_>
          11 12 6 12 -1.</_>
        <_>
          13 16 2 4 9.</_></rects>
      <tilted>0</tilted></_>
    <_>
      <rects>
        <_>
          11 13 6 9 -1.</_>
        <_>
          13 16 2 3 9.</_></rects>
      <tilted>0</tilted></_>
    <_>
      <rects>
        <_>
          11 14 6 6 -1.</_>
        <_>
          13 16 2 2 9.</_></rects>
      <tilted>0</tilted></_>
    <_>
      <rects>
        <_>
          11 14 8 4 -1.</_>
        <_>
          15 14 4 4 2.</_></rects>
      <tilted>0</tilted></_>
    <_>
      <rects>
        <_>
          11 14 7 6 -1.</_>
        <_>
          11 16 7 2 3.</_></rects>
      <tilted>0</tilted></_>
    <_>
      <rects>
        <_>
          11 16 4 1 -1.</_>
        <_>
          12 16 2 1 2.</_></rects>
      <tilted>0</tilted></_>
    <_>
      <rects>
        <_>
          12 0 9 4 -1.</_>
        <_>
          15 3 3 4 3.</_></rects>
      <tilted>1</tilted></_>
    <_>
      <rects>
        <_>
          12 4 4 2 -1.</_>
        <_>
          12 4 2 2 2.</_></rects>
      <tilted>1</tilted></_>
    <_>
      <rects>
        <_>
          12 5 7 12 -1.</_>
        <_>
          12 9 7 4 3.</_></rects>
      <tilted>0</tilted></_>
    <_>
      <rects>
        <_>
          12 6 6 21 -1.</_>
        <_>
          12 13 6 7 3.</_></rects>
      <tilted>0</tilted></_>
    <_>
      <rects>
        <_>
          12 7 5 12 -1.</_>
        <_>
          12 11 5 4 3.</_></rects>
      <tilted>0</tilted></_>
    <_>
      <rects>
        <_>
          12 8 2 2 -1.</_>
        <_>
          12 8 1 2 2.</_></rects>
      <tilted>1</tilted></_>
    <_>
      <rects>
        <_>
          12 8 5 4 -1.</_>
        <_>
          12 10 5 2 2.</_></rects>
      <tilted>0</tilted></_>
    <_>
      <rects>
        <_>
          12 9 8 10 -1.</_>
        <_>
          14 9 4 10 2.</_></rects>
      <tilted>0</tilted></_>
    <_>
      <rects>
        <_>
          12 9 6 14 -1.</_>
        <_>
          12 9 3 7 2.</_>
        <_>
          15 16 3 7 2.</_></rects>
      <tilted>0</tilted></_>
    <_>
      <rects>
        <_>
          12 9 4 3 -1.</_>
        <_>
          12 10 4 1 3.</_></rects>
      <tilted>0</tilted></_>
    <_>
      <rects>
        <_>
          12 10 2 3 -1.</_>
        <_>
          12 10 1 3 2.</_></rects>
      <tilted>1</tilted></_>
    <_>
      <rects>
        <_>
          12 10 6 3 -1.</_>
        <_>
          14 12 2 3 3.</_></rects>
      <tilted>1</tilted></_>
    <_>
      <rects>
        <_>
          12 10 4 12 -1.</_>
        <_>
          12 10 4 6 2.</_></rects>
      <tilted>1</tilted></_>
    <_>
      <rects>
        <_>
          12 11 8 5 -1.</_>
        <_>
          14 13 4 5 2.</_></rects>
      <tilted>1</tilted></_>
    <_>
      <rects>
        <_>
          12 11 4 15 -1.</_>
        <_>
          12 16 4 5 3.</_></rects>
      <tilted>0</tilted></_>
    <_>
      <rects>
        <_>
          12 12 4 9 -1.</_>
        <_>
          12 15 4 3 3.</_></rects>
      <tilted>0</tilted></_>
    <_>
      <rects>
        <_>
          12 13 3 3 -1.</_>
        <_>
          13 14 1 1 9.</_></rects>
      <tilted>0</tilted></_>
    <_>
      <rects>
        <_>
          12 14 2 2 -1.</_>
        <_>
          12 14 1 1 2.</_>
        <_>
          13 15 1 1 2.</_></rects>
      <tilted>0</tilted></_>
    <_>
      <rects>
        <_>
          12 14 3 2 -1.</_>
        <_>
          13 14 1 2 3.</_></rects>
      <tilted>0</tilted></_>
    <_>
      <rects>
        <_>
          12 14 3 3 -1.</_>
        <_>
          12 15 3 1 3.</_></rects>
      <tilted>0</tilted></_>
    <_>
      <rects>
        <_>
          12 15 2 2 -1.</_>
        <_>
          12 16 2 1 2.</_></rects>
      <tilted>0</tilted></_>
    <_>
      <rects>
        <_>
          12 15 4 6 -1.</_>
        <_>
          12 18 4 3 2.</_></rects>
      <tilted>0</tilted></_>
    <_>
      <rects>
        <_>
          12 16 4 1 -1.</_>
        <_>
          13 16 2 1 2.</_></rects>
      <tilted>0</tilted></_>
    <_>
      <rects>
        <_>
          12 20 7 3 -1.</_>
        <_>
          12 21 7 1 3.</_></rects>
      <tilted>0</tilted></_>
    <_>
      <rects>
        <_>
          12 21 8 9 -1.</_>
        <_>
          12 24 8 3 3.</_></rects>
      <tilted>0</tilted></_>
    <_>
      <rects>
        <_>
          12 22 8 8 -1.</_>
        <_>
          12 24 8 4 2.</_></rects>
      <tilted>0</tilted></_>
    <_>
      <rects>
        <_>
          12 23 4 1 -1.</_>
        <_>
          14 23 2 1 2.</_></rects>
      <tilted>0</tilted></_>
    <_>
      <rects>
        <_>
          13 3 2 3 -1.</_>
        <_>
          13 4 2 1 3.</_></rects>
      <tilted>0</tilted></_>
    <_>
      <rects>
        <_>
          13 4 3 3 -1.</_>
        <_>
          12 5 3 1 3.</_></rects>
      <tilted>1</tilted></_>
    <_>
      <rects>
        <_>
          13 4 8 2 -1.</_>
        <_>
          13 4 4 2 2.</_></rects>
      <tilted>1</tilted></_>
    <_>
      <rects>
        <_>
          13 5 4 1 -1.</_>
        <_>
          13 5 2 1 2.</_></rects>
      <tilted>1</tilted></_>
    <_>
      <rects>
        <_>
          13 5 4 16 -1.</_>
        <_>
          13 5 2 8 2.</_>
        <_>
          15 13 2 8 2.</_></rects>
      <tilted>0</tilted></_>
    <_>
      <rects>
        <_>
          13 5 8 1 -1.</_>
        <_>
          13 5 4 1 2.</_></rects>
      <tilted>1</tilted></_>
    <_>
      <rects>
        <_>
          13 6 1 2 -1.</_>
        <_>
          13 6 1 1 2.</_></rects>
      <tilted>1</tilted></_>
    <_>
      <rects>
        <_>
          13 6 4 12 -1.</_>
        <_>
          13 12 4 6 2.</_></rects>
      <tilted>0</tilted></_>
    <_>
      <rects>
        <_>
          13 7 5 3 -1.</_>
        <_>
          13 8 5 1 3.</_></rects>
      <tilted>0</tilted></_>
    <_>
      <rects>
        <_>
          13 7 7 6 -1.</_>
        <_>
          13 10 7 3 2.</_></rects>
      <tilted>0</tilted></_>
    <_>
      <rects>
        <_>
          13 8 2 6 -1.</_>
        <_>
          11 10 2 2 3.</_></rects>
      <tilted>1</tilted></_>
    <_>
      <rects>
        <_>
          13 8 3 3 -1.</_>
        <_>
          12 9 3 1 3.</_></rects>
      <tilted>1</tilted></_>
    <_>
      <rects>
        <_>
          13 11 2 9 -1.</_>
        <_>
          13 14 2 3 3.</_></rects>
      <tilted>0</tilted></_>
    <_>
      <rects>
        <_>
          13 11 6 6 -1.</_>
        <_>
          13 11 3 3 2.</_>
        <_>
          16 14 3 3 2.</_></rects>
      <tilted>0</tilted></_>
    <_>
      <rects>
        <_>
          13 13 6 4 -1.</_>
        <_>
          15 15 2 4 3.</_></rects>
      <tilted>1</tilted></_>
    <_>
      <rects>
        <_>
          13 14 2 4 -1.</_>
        <_>
          13 15 2 2 2.</_></rects>
      <tilted>0</tilted></_>
    <_>
      <rects>
        <_>
          13 15 1 3 -1.</_>
        <_>
          13 16 1 1 3.</_></rects>
      <tilted>0</tilted></_>
    <_>
      <rects>
        <_>
          13 15 6 3 -1.</_>
        <_>
          16 15 3 3 2.</_></rects>
      <tilted>0</tilted></_>
    <_>
      <rects>
        <_>
          13 17 1 3 -1.</_>
        <_>
          13 18 1 1 3.</_></rects>
      <tilted>0</tilted></_>
    <_>
      <rects>
        <_>
          13 19 4 2 -1.</_>
        <_>
          13 19 2 1 2.</_>
        <_>
          15 20 2 1 2.</_></rects>
      <tilted>0</tilted></_>
    <_>
      <rects>
        <_>
          13 19 4 3 -1.</_>
        <_>
          13 20 4 1 3.</_></rects>
      <tilted>0</tilted></_>
    <_>
      <rects>
        <_>
          13 21 3 3 -1.</_>
        <_>
          13 22 3 1 3.</_></rects>
      <tilted>0</tilted></_>
    <_>
      <rects>
        <_>
          14 2 4 8 -1.</_>
        <_>
          14 2 2 8 2.</_></rects>
      <tilted>1</tilted></_>
    <_>
      <rects>
        <_>
          14 4 9 9 -1.</_>
        <_>
          17 7 3 3 9.</_></rects>
      <tilted>0</tilted></_>
    <_>
      <rects>
        <_>
          14 4 3 26 -1.</_>
        <_>
          14 17 3 13 2.</_></rects>
      <tilted>0</tilted></_>
    <_>
      <rects>
        <_>
          14 6 2 14 -1.</_>
        <_>
          14 13 2 7 2.</_></rects>
      <tilted>0</tilted></_>
    <_>
      <rects>
        <_>
          14 6 6 20 -1.</_>
        <_>
          14 11 6 10 2.</_></rects>
      <tilted>0</tilted></_>
    <_>
      <rects>
        <_>
          14 7 2 10 -1.</_>
        <_>
          14 12 2 5 2.</_></rects>
      <tilted>0</tilted></_>
    <_>
      <rects>
        <_>
          14 9 3 6 -1.</_>
        <_>
          12 11 3 2 3.</_></rects>
      <tilted>1</tilted></_>
    <_>
      <rects>
        <_>
          14 12 2 3 -1.</_>
        <_>
          15 12 1 3 2.</_></rects>
      <tilted>0</tilted></_>
    <_>
      <rects>
        <_>
          14 12 2 3 -1.</_>
        <_>
          13 13 2 1 3.</_></rects>
      <tilted>1</tilted></_>
    <_>
      <rects>
        <_>
          14 12 4 8 -1.</_>
        <_>
          14 16 4 4 2.</_></rects>
      <tilted>0</tilted></_>
    <_>
      <rects>
        <_>
          14 12 4 12 -1.</_>
        <_>
          14 18 4 6 2.</_></rects>
      <tilted>0</tilted></_>
    <_>
      <rects>
        <_>
          14 13 3 3 -1.</_>
        <_>
          15 13 1 3 3.</_></rects>
      <tilted>0</tilted></_>
    <_>
      <rects>
        <_>
          14 13 4 6 -1.</_>
        <_>
          14 13 2 6 2.</_></rects>
      <tilted>1</tilted></_>
    <_>
      <rects>
        <_>
          14 14 1 2 -1.</_>
        <_>
          14 15 1 1 2.</_></rects>
      <tilted>0</tilted></_>
    <_>
      <rects>
        <_>
          14 14 1 3 -1.</_>
        <_>
          14 15 1 1 3.</_></rects>
      <tilted>0</tilted></_>
    <_>
      <rects>
        <_>
          14 14 2 2 -1.</_>
        <_>
          14 14 1 1 2.</_>
        <_>
          15 15 1 1 2.</_></rects>
      <tilted>0</tilted></_>
    <_>
      <rects>
        <_>
          14 15 3 1 -1.</_>
        <_>
          15 15 1 1 3.</_></rects>
      <tilted>0</tilted></_>
    <_>
      <rects>
        <_>
          14 15 1 3 -1.</_>
        <_>
          14 16 1 1 3.</_></rects>
      <tilted>0</tilted></_>
    <_>
      <rects>
        <_>
          14 15 2 2 -1.</_>
        <_>
          14 15 1 1 2.</_>
        <_>
          15 16 1 1 2.</_></rects>
      <tilted>0</tilted></_>
    <_>
      <rects>
        <_>
          14 16 6 6 -1.</_>
        <_>
          16 18 2 2 9.</_></rects>
      <tilted>0</tilted></_>
    <_>
      <rects>
        <_>
          14 17 2 3 -1.</_>
        <_>
          14 18 2 1 3.</_></rects>
      <tilted>0</tilted></_>
    <_>
      <rects>
        <_>
          14 17 4 3 -1.</_>
        <_>
          16 17 2 3 2.</_></rects>
      <tilted>0</tilted></_>
    <_>
      <rects>
        <_>
          14 18 2 3 -1.</_>
        <_>
          14 19 2 1 3.</_></rects>
      <tilted>0</tilted></_>
    <_>
      <rects>
        <_>
          14 19 3 4 -1.</_>
        <_>
          14 21 3 2 2.</_></rects>
      <tilted>0</tilted></_>
    <_>
      <rects>
        <_>
          14 26 4 3 -1.</_>
        <_>
          16 26 2 3 2.</_></rects>
      <tilted>0</tilted></_>
    <_>
      <rects>
        <_>
          15 1 4 10 -1.</_>
        <_>
          15 1 2 10 2.</_></rects>
      <tilted>1</tilted></_>
    <_>
      <rects>
        <_>
          15 4 4 3 -1.</_>
        <_>
          15 4 2 3 2.</_></rects>
      <tilted>1</tilted></_>
    <_>
      <rects>
        <_>
          15 4 6 12 -1.</_>
        <_>
          15 8 6 4 3.</_></rects>
      <tilted>0</tilted></_>
    <_>
      <rects>
        <_>
          15 6 4 1 -1.</_>
        <_>
          15 6 2 1 2.</_></rects>
      <tilted>1</tilted></_>
    <_>
      <rects>
        <_>
          15 6 3 16 -1.</_>
        <_>
          15 14 3 8 2.</_></rects>
      <tilted>0</tilted></_>
    <_>
      <rects>
        <_>
          15 6 4 9 -1.</_>
        <_>
          12 9 4 3 3.</_></rects>
      <tilted>1</tilted></_>
    <_>
      <rects>
        <_>
          15 10 4 10 -1.</_>
        <_>
          16 10 2 10 2.</_></rects>
      <tilted>0</tilted></_>
    <_>
      <rects>
        <_>
          15 10 6 4 -1.</_>
        <_>
          15 10 3 4 2.</_></rects>
      <tilted>1</tilted></_>
    <_>
      <rects>
        <_>
          15 11 2 12 -1.</_>
        <_>
          15 17 2 6 2.</_></rects>
      <tilted>0</tilted></_>
    <_>
      <rects>
        <_>
          15 12 3 4 -1.</_>
        <_>
          16 13 1 4 3.</_></rects>
      <tilted>1</tilted></_>
    <_>
      <rects>
        <_>
          15 12 6 6 -1.</_>
        <_>
          17 14 2 2 9.</_></rects>
      <tilted>0</tilted></_>
    <_>
      <rects>
        <_>
          15 13 3 5 -1.</_>
        <_>
          16 13 1 5 3.</_></rects>
      <tilted>0</tilted></_>
    <_>
      <rects>
        <_>
          15 13 6 6 -1.</_>
        <_>
          15 13 3 6 2.</_></rects>
      <tilted>1</tilted></_>
    <_>
      <rects>
        <_>
          15 14 1 9 -1.</_>
        <_>
          15 17 1 3 3.</_></rects>
      <tilted>0</tilted></_>
    <_>
      <rects>
        <_>
          15 14 2 4 -1.</_>
        <_>
          15 14 1 4 2.</_></rects>
      <tilted>1</tilted></_>
    <_>
      <rects>
        <_>
          15 14 4 5 -1.</_>
        <_>
          15 14 2 5 2.</_></rects>
      <tilted>1</tilted></_>
    <_>
      <rects>
        <_>
          15 15 3 8 -1.</_>
        <_>
          15 19 3 4 2.</_></rects>
      <tilted>0</tilted></_>
    <_>
      <rects>
        <_>
          15 16 4 3 -1.</_>
        <_>
          17 16 2 3 2.</_></rects>
      <tilted>0</tilted></_>
    <_>
      <rects>
        <_>
          15 17 4 3 -1.</_>
        <_>
          16 18 2 3 2.</_></rects>
      <tilted>1</tilted></_>
    <_>
      <rects>
        <_>
          15 17 4 2 -1.</_>
        <_>
          15 17 2 2 2.</_></rects>
      <tilted>1</tilted></_>
    <_>
      <rects>
        <_>
          15 18 3 2 -1.</_>
        <_>
          15 18 3 1 2.</_></rects>
      <tilted>1</tilted></_>
    <_>
      <rects>
        <_>
          15 27 2 1 -1.</_>
        <_>
          15 27 1 1 2.</_></rects>
      <tilted>1</tilted></_>
    <_>
      <rects>
        <_>
          16 5 3 3 -1.</_>
        <_>
          17 6 1 3 3.</_></rects>
      <tilted>1</tilted></_>
    <_>
      <rects>
        <_>
          16 5 4 3 -1.</_>
        <_>
          16 5 2 3 2.</_></rects>
      <tilted>1</tilted></_>
    <_>
      <rects>
        <_>
          16 7 7 16 -1.</_>
        <_>
          16 7 7 8 2.</_></rects>
      <tilted>1</tilted></_>
    <_>
      <rects>
        <_>
          16 8 2 5 -1.</_>
        <_>
          17 8 1 5 2.</_></rects>
      <tilted>0</tilted></_>
    <_>
      <rects>
        <_>
          16 9 6 3 -1.</_>
        <_>
          15 10 6 1 3.</_></rects>
      <tilted>1</tilted></_>
    <_>
      <rects>
        <_>
          16 10 1 6 -1.</_>
        <_>
          16 12 1 2 3.</_></rects>
      <tilted>0</tilted></_>
    <_>
      <rects>
        <_>
          16 11 3 4 -1.</_>
        <_>
          15 12 3 2 2.</_></rects>
      <tilted>1</tilted></_>
    <_>
      <rects>
        <_>
          16 11 6 7 -1.</_>
        <_>
          16 11 3 7 2.</_></rects>
      <tilted>1</tilted></_>
    <_>
      <rects>
        <_>
          16 12 6 8 -1.</_>
        <_>
          16 12 3 8 2.</_></rects>
      <tilted>1</tilted></_>
    <_>
      <rects>
        <_>
          16 15 3 4 -1.</_>
        <_>
          17 15 1 4 3.</_></rects>
      <tilted>0</tilted></_>
    <_>
      <rects>
        <_>
          16 17 3 1 -1.</_>
        <_>
          17 17 1 1 3.</_></rects>
      <tilted>0</tilted></_>
    <_>
      <rects>
        <_>
          16 17 4 2 -1.</_>
        <_>
          16 17 2 2 2.</_></rects>
      <tilted>1</tilted></_>
    <_>
      <rects>
        <_>
          16 18 2 4 -1.</_>
        <_>
          16 20 2 2 2.</_></rects>
      <tilted>0</tilted></_>
    <_>
      <rects>
        <_>
          16 19 1 2 -1.</_>
        <_>
          16 19 1 1 2.</_></rects>
      <tilted>1</tilted></_>
    <_>
      <rects>
        <_>
          16 22 1 2 -1.</_>
        <_>
          16 23 1 1 2.</_></rects>
      <tilted>0</tilted></_>
    <_>
      <rects>
        <_>
          17 8 4 3 -1.</_>
        <_>
          16 9 4 1 3.</_></rects>
      <tilted>1</tilted></_>
    <_>
      <rects>
        <_>
          17 10 3 3 -1.</_>
        <_>
          16 11 3 1 3.</_></rects>
      <tilted>1</tilted></_>
    <_>
      <rects>
        <_>
          17 12 3 6 -1.</_>
        <_>
          17 12 3 3 2.</_></rects>
      <tilted>1</tilted></_>
    <_>
      <rects>
        <_>
          17 14 2 8 -1.</_>
        <_>
          17 18 2 4 2.</_></rects>
      <tilted>0</tilted></_>
    <_>
      <rects>
        <_>
          17 17 1 3 -1.</_>
        <_>
          17 18 1 1 3.</_></rects>
      <tilted>0</tilted></_>
    <_>
      <rects>
        <_>
          18 0 6 9 -1.</_>
        <_>
          15 3 6 3 3.</_></rects>
      <tilted>1</tilted></_>
    <_>
      <rects>
        <_>
          18 12 3 6 -1.</_>
        <_>
          18 12 3 3 2.</_></rects>
      <tilted>1</tilted></_>
    <_>
      <rects>
        <_>
          18 14 3 8 -1.</_>
        <_>
          18 14 3 4 2.</_></rects>
      <tilted>1</tilted></_>
    <_>
      <rects>
        <_>
          18 15 1 4 -1.</_>
        <_>
          18 15 1 2 2.</_></rects>
      <tilted>1</tilted></_>
    <_>
      <rects>
        <_>
          18 15 3 5 -1.</_>
        <_>
          19 16 1 5 3.</_></rects>
      <tilted>1</tilted></_>
    <_>
      <rects>
        <_>
          19 1 4 15 -1.</_>
        <_>
          20 2 2 15 2.</_></rects>
      <tilted>1</tilted></_>
    <_>
      <rects>
        <_>
          19 16 1 8 -1.</_>
        <_>
          19 16 1 4 2.</_></rects>
      <tilted>1</tilted></_>
    <_>
      <rects>
        <_>
          23 8 1 20 -1.</_>
        <_>
          23 8 1 10 2.</_></rects>
      <tilted>1</tilted></_></features></cascade>
</opencv_storage>
